<?xml version="1.0"?>
<opencv_storage>
<svm type_id="opencv-ml-svm">
  <svm_type>C_SVC</svm_type>
  <kernel><type>RBF</type>
    <gamma>1.</gamma></kernel>
  <C>1.</C>
  <term_criteria><epsilon>2.2204460492503131e-16</epsilon>
    <iterations>1000</iterations></term_criteria>
  <var_all>10</var_all>
  <var_count>10</var_count>
  <class_count>2</class_count>
  <class_labels type_id="opencv-matrix">
    <rows>1</rows>
    <cols>2</cols>
    <dt>i</dt>
    <data>
      0 1</data></class_labels>
  <sv_total>2000</sv_total>
  <support_vectors>
    <_>
      48. 69. 3740. 24205. 25917. 8575. 11438. 8404. 1276. 1854.</_>
    <_>
      91. 63. 459839. 21108. 2824. 3381. 3452. 2380. 1125. 129.</_>
    <_>
      64. 54. 16749994. 19817. 11088. 10703. 6848. 5247. 1992. 2127.</_>
    <_>
      70. 56. 18450. 12745. 18728. 8815. 6773. 7994. 2603. 1169.</_>
    <_>
      54. 74. 16771087. 3481. 10243. 23183. 5758. 9611. 3842. 2725.</_>
    <_>
      13. 50. 12728. 16763313. 71122. 7416. 2818. 14430. 2325. 1761.</_>
    <_>
      40. 81. 19651. 17617. 12302. 3690. 4741. 6868. 3219. 5820.</_>
    <_>
      91. 74. 5321. 1429. 3027. 1976. 3465. 1436. 912. 571.</_>
    <_>
      40. 74. 21107. 16752466. 16758754. 22263. 9720. 7971. 1056. 2187.</_>
    <_>
      48. 47. 932337. 16763052. 19162. 9385. 27299. 9881. 4719. 1232.</_>
    <_>
      67. 66. 21811. 2995. 4434. 28159. 3642. 7884. 4117. 973.</_>
    <_>
      50. 81. 16749816. 16750247. 10091. 9567. 5671. 7326. 5047. 456.</_>
    <_>
      84. 57. 24374. 16749115. 16744445. 17091. 8740. 16058. 2397. 1463.</_>
    <_>
      63. 83. 5141. 6659. 1311. 1748. 5153. 905. 1044. 605.</_>
    <_>
      54. 56. 11436. 19714. 3735. 15954. 14131. 3394. 1305. 1093.</_>
    <_>
      51. 75. 7471. 15569. 28123. 7847. 4870. 15904. 1409. 962.</_>
    <_>
      61. 74. 1024. 13231. 16745204. 5884. 10517. 10315. 1998. 3011.</_>
    <_>
      47. 54. 6015. 13221. 4833. 18242. 6603. 4394. 3206. 3031.</_>
    <_>
      77. 69. 19446. 10871. 14552. 10256. 4953. 6524. 1549. 1079.</_>
    <_>
      56. 50. 325604. 73899. 17960. 4926. 4564. 4775. 5278. 1630.</_>
    <_>
      44. 83. 13735. 10804. 24817. 16755195. 20541. 12701. 1206. 705.</_>
    <_>
      40. 96. 16750029. 26822. 15377. 33401. 21070. 9178. 2052. 1326.</_>
    <_>
      91. 57. 32473. 19027. 72397. 7358. 16154. 7112. 2460. 1184.</_>
    <_>
      43. 38. 1039116. 25176. 1926. 4323. 573. 556. 273. 16777158.</_>
    <_>
      64. 51. 130337. 14461. 1620. 3519. 1490. 1947. 165. 586.</_>
    <_>
      54. 100. 17114. 13936. 9011. 16744852. 5543. 16281. 1965. 2461.</_>
    <_>
      70. 70. 29486. 11333. 5006. 5958. 4563. 5160. 1574. 247.</_>
    <_>
      50. 69. 17169. 15836. 19869. 16595. 12865. 22757. 2084. 2278.</_>
    <_>
      75. 61. 21711. 16552. 3058. 15659. 5551. 7704. 6730. 2401.</_>
    <_>
      83. 40. 9625. 14384. 10584. 11956. 5891. 2580. 1385. 2518.</_>
    <_>
      48. 20. 27616. 13008. 2215. 3937. 2657. 3999. 144. 16777182.</_>
    <_>
      77. 83. 171845. 7665. 5060. 5905. 9733. 3452. 6188. 984.</_>
    <_>
      61. 30. 11498. 7826. 15550. 2270. 10480. 31781. 2490. 1434.</_>
    <_>
      27. 40. 84938. 16756463. 3055. 23642. 4123. 11893. 7956. 5188.</_>
    <_>
      41. 56. 26761. 16770144. 20450. 13389. 13428. 10651. 1231. 1815.</_>
    <_>
      43. 93. 17045. 7231. 29369. 22832. 7620. 3460. 1694. 1189.</_>
    <_>
      44. 78. 16755705. 18356. 17027. 16488. 17097. 15583. 921. 1016.</_>
    <_>
      87. 78. 16745209. 9691. 6789. 15052. 2416. 15605. 1677. 1063.</_>
    <_>
      69. 100. 20503. 22428. 16761316. 10689. 7686. 11437. 4258. 1486.</_>
    <_>
      78. 83. 145049. 19982. 16756043. 26282. 7447. 11383. 918. 1385.</_>
    <_>
      77. 47. 4493. 5991. 4661. 4673. 1889. 4178. 900. 528.</_>
    <_>
      66. 63. 6628. 10234. 6747. 11934. 7422. 7666. 4782. 3162.</_>
    <_>
      51. 78. 30745. 20665. 22370. 24497. 7768. 7604. 1335. 986.</_>
    <_>
      41. 69. 14618. 5831. 26108. 4395. 6572. 16721. 2735. 2316.</_>
    <_>
      26. 90. 6578. 14198. 16760464. 7964. 18053. 6374. 6373. 390.</_>
    <_>
      53. 67. 7449. 10873. 31941. 2843. 10058. 10106. 1393. 611.</_>
    <_>
      64. 37. 16753602. 19911. 9720. 22651. 4669. 12322. 2164. 2162.</_>
    <_>
      56. 27. 16755760. 18509. 9345. 29811. 14838. 7442. 9814. 4739.</_>
    <_>
      40. 75. 14367. 16351. 16752412. 22728. 1499. 6885. 1761. 1964.</_>
    <_>
      27. 74. 17666. 28483. 7242. 16745417. 3593. 9119. 4109. 4816.</_>
    <_>
      70. 88. 18204. 14151. 16755. 5296. 13090. 6033. 4355. 1352.</_>
    <_>
      83. 53. 11720. 11075. 6339. 5615. 5694. 5909. 3816. 1477.</_>
    <_>
      44. 78. 3218. 6641. 18089. 16760221. 2268. 14716. 2234. 1510.</_>
    <_>
      50. 74. 25080. 29500. 71558. 19979. 30155. 13395. 2251. 1521.</_>
    <_>
      64. 77. 97605. 16562. 16769944. 16744784. 6833. 6713. 3407. 2959.</_>
    <_>
      35. 53. 435193. 16755979. 16761248. 25276. 25249. 10874. 7633.
      5689.</_>
    <_>
      64. 44. 35016. 16749787. 31193. 2517. 14466. 21477. 2857. 4404.</_>
    <_>
      70. 60. 14108. 9906. 1679. 4208. 5340. 17731. 4354. 1360.</_>
    <_>
      24. 70. 24142. 10332. 20470. 8604. 5183. 9894. 1443. 2527.</_>
    <_>
      48. 41. 8788. 24738. 16745844. 13321. 7004. 6746. 1730. 1407.</_>
    <_>
      53. 54. 139209. 16750765. 20154. 8244. 8966. 9796. 3016. 743.</_>
    <_>
      44. 61. 6279. 26219. 16745452. 4343. 5350. 3888. 2174. 1354.</_>
    <_>
      61. 93. 37582. 16752553. 6412. 6388. 4312. 5202. 1121. 1280.</_>
    <_>
      53. 69. 16745505. 21354. 16777. 13944. 8898. 9025. 3048. 1014.</_>
    <_>
      38. 75. 10207. 19097. 30370. 16775542. 8245. 13871. 1113. 1211.</_>
    <_>
      81. 23. 17699. 16773530. 8287. 12896. 20432. 10828. 1563. 1033.</_>
    <_>
      34. 100. 19298. 5494. 68225. 446. 4660. 5758. 1459. 1493.</_>
    <_>
      44. 60. 24433. 14592. 11134. 7495. 5390. 3257. 1343. 984.</_>
    <_>
      64. 63. 9666. 22466. 9476. 14145. 2254. 16028. 1185. 919.</_>
    <_>
      93. 50. 7639. 12862. 461. 8876. 18661. 18994. 4898. 3679.</_>
    <_>
      47. 43. 2203828. 29380. 30403. 25809. 13211. 8134. 3547. 3129.</_>
    <_>
      50. 100. 31800. 21310. 16764810. 9154. 9167. 14783. 2193. 1005.</_>
    <_>
      54. 64. 1329763. 292445. 35823. 16744431. 23178. 18136. 6766.
      2932.</_>
    <_>
      83. 38. 251878. 63268. 6872. 11211. 5173. 16618. 1960. 2150.</_>
    <_>
      53. 81. 16753829. 10463. 21902. 70238. 16520. 11513. 3700. 2339.</_>
    <_>
      40. 100. 16663. 16096. 11704. 26096. 9570. 11315. 888. 1314.</_>
    <_>
      50. 75. 9384. 8085. 19927. 14534. 2269. 7067. 6382. 3873.</_>
    <_>
      51. 69. 12070. 24755. 16757027. 10359. 11401. 11662. 3622. 1975.</_>
    <_>
      34. 74. 11171. 12229. 29398. 8474. 11770. 5958. 2828. 1973.</_>
    <_>
      41. 100. 5181. 8918. 4920. 18893. 13316. 6266. 5122. 2059.</_>
    <_>
      54. 67. 14273. 3501. 8067. 19606. 14589. 10838. 1110. 851.</_>
    <_>
      66. 63. 3665. 8886. 16769893. 15268. 6789. 12669. 4721. 1724.</_>
    <_>
      16. 48. 711950. 20710. 21594. 4643. 15577. 23491. 1750. 653.</_>
    <_>
      54. 48. 76933. 16757599. 22793. 11901. 6534. 6235. 2203. 1845.</_>
    <_>
      74. 56. 336049. 7643. 31254. 8206. 1112. 2687. 1358. 577.</_>
    <_>
      100. 20. 13740. 28706. 772. 14192. 10425. 17453. 1688. 1867.</_>
    <_>
      60. 64. 16745388. 15126. 10204. 23222. 18892. 12972. 2666. 1838.</_>
    <_>
      14. 47. 362879. 40889. 21900. 16750411. 11336. 9130. 4095. 5554.</_>
    <_>
      48. 47. 12571. 26626. 2593. 5120. 3290. 1715. 927. 608.</_>
    <_>
      60. 63. 10420. 16217. 16764690. 20178. 7840. 4233. 3756. 1183.</_>
    <_>
      57. 51. 13015. 7505. 16758084. 15152. 6260. 9443. 3671. 3282.</_>
    <_>
      20. 94. 16745253. 17238. 23746. 11651. 8729. 6044. 907. 1465.</_>
    <_>
      64. 80. 31985. 11370. 17990. 13785. 3083. 5982. 2085. 1547.</_>
    <_>
      51. 61. 403372. 22079. 2713. 12011. 1221. 2719. 1116. 190.</_>
    <_>
      77. 74. 2300. 13996. 7562. 10615. 2414. 16749112. 1641. 1442.</_>
    <_>
      47. 81. 76238. 1830. 2891. 1302. 361. 266. 82. 51.</_>
    <_>
      44. 51. 29007. 10405. 16745478. 2347. 15136. 8851. 4038. 1976.</_>
    <_>
      66. 27. 45803. 16762933. 10847. 4841. 15209. 3597. 4436. 1911.</_>
    <_>
      57. 38. 20388. 21347. 15570. 8459. 1764. 3841. 3434. 1342.</_>
    <_>
      50. 70. 1031586. 16746876. 2820. 5056. 1547. 2132. 623. 16777146.</_>
    <_>
      8. 67. 75650. 16755299. 31486. 1804. 20961. 6414. 1549. 1359.</_>
    <_>
      35. 78. 18116. 22425. 83226. 29129. 7634. 20185. 3124. 4847.</_>
    <_>
      43. 56. 70577. 11928. 5746. 1035. 926. 525. 301. 16777184.</_>
    <_>
      61. 70. 4767. 10105. 4904. 12867. 5731. 7894. 2726. 1821.</_>
    <_>
      66. 84. 9520. 20907. 16772230. 27893. 7960. 9153. 2817. 1281.</_>
    <_>
      41. 77. 11573. 14651. 13436. 17906. 6958. 5443. 5979. 4523.</_>
    <_>
      63. 63. 10066. 12788. 15776. 3895. 9748. 10154. 1112. 1997.</_>
    <_>
      34. 67. 16761710. 26138. 8305. 11337. 10466. 10087. 2112. 1371.</_>
    <_>
      27. 47. 46376. 16752059. 5073. 6952. 3644. 1167. 465. 529.</_>
    <_>
      54. 64. 9341. 20171. 30796. 12309. 11528. 4639. 1380. 597.</_>
    <_>
      54. 50. 16746029. 17162. 14329. 12054. 3709. 6820. 1000. 700.</_>
    <_>
      29. 57. 1978290. 118352. 16747341. 9684. 19779. 3905. 603. 387.</_>
    <_>
      47. 60. 16753848. 16768872. 8316. 10976. 9755. 8845. 2108. 412.</_>
    <_>
      57. 67. 2678. 20550. 20639. 7269. 10064. 7381. 2157. 908.</_>
    <_>
      66. 69. 4858. 9436. 23797. 13207. 10581. 6359. 3833. 1778.</_>
    <_>
      54. 48. 66761. 2166. 1412. 579. 3626. 442. 366. 16777214.</_>
    <_>
      57. 60. 16744958. 4807. 13338. 4462. 7696. 6230. 2787. 1693.</_>
    <_>
      60. 63. 16746704. 12328. 9044. 11637. 4579. 14808. 2472. 1601.</_>
    <_>
      53. 24. 16760005. 16760540. 16747487. 10664. 24872. 4484. 2124.
      752.</_>
    <_>
      41. 87. 11628. 20306. 16761779. 14640. 4358. 6940. 2302. 1345.</_>
    <_>
      74. 77. 943517. 16760243. 16771465. 16776008. 29330. 16702. 8069.
      3399.</_>
    <_>
      78. 50. 32459. 16747002. 10293. 6821. 8225. 10222. 1578. 1773.</_>
    <_>
      41. 80. 16749683. 7688. 78146. 17396. 7902. 7448. 2499. 2283.</_>
    <_>
      74. 63. 17596. 8110. 7179. 3818. 8607. 4639. 2088. 1401.</_>
    <_>
      51. 51. 831736. 31364. 3597. 6432. 5960. 5047. 3155. 3225.</_>
    <_>
      69. 51. 207977. 94940. 16749774. 26117. 14591. 15999. 2609. 2120.</_>
    <_>
      35. 100. 12263. 5724. 201. 10980. 6835. 6415. 2855. 1156.</_>
    <_>
      53. 83. 11428. 22503. 26426. 23768. 15552. 8591. 3016. 1902.</_>
    <_>
      61. 35. 5261. 11391. 5007. 5579. 11147. 11071. 2178. 4206.</_>
    <_>
      40. 80. 5263. 16595. 24815. 8562. 6100. 4950. 1971. 4607.</_>
    <_>
      50. 75. 17238. 19508. 10249. 11010. 6563. 11676. 1479. 1158.</_>
    <_>
      60. 60. 8573. 16751357. 22780. 8209. 9096. 8293. 1997. 1941.</_>
    <_>
      37. 96. 1820. 3491. 12348. 24639. 5739. 8951. 2386. 1006.</_>
    <_>
      70. 75. 5135. 6167. 5906. 1607. 2317. 3252. 680. 677.</_>
    <_>
      38. 60. 56550. 16752489. 14135. 15440. 18460. 13926. 1362. 1597.</_>
    <_>
      74. 67. 1877. 9288. 875. 20064. 6108. 8016. 1053. 1008.</_>
    <_>
      70. 48. 16771580. 15230. 5940. 16834. 12034. 11120. 10469. 3515.</_>
    <_>
      40. 23. 976889. 275895. 76023. 25262. 16774800. 51429. 15182.
      15584.</_>
    <_>
      77. 83. 403682. 16747139. 16752133. 20247. 24126. 25195. 9778.
      4559.</_>
    <_>
      51. 47. 16749567. 22401. 8691. 24782. 6738. 14335. 1710. 2026.</_>
    <_>
      57. 78. 16423. 9124. 16752893. 16769440. 5034. 21355. 9629. 2742.</_>
    <_>
      97. 37. 543525. 16749509. 10182. 6393. 2726. 11692. 1861. 1559.</_>
    <_>
      80. 43. 44608. 19826. 26361. 20650. 7539. 13242. 879. 1424.</_>
    <_>
      77. 100. 919576. 67252. 19264. 16763183. 23440. 31693. 11861.
      6534.</_>
    <_>
      67. 78. 8876. 4023. 5510. 17745. 10936. 3577. 1634. 2291.</_>
    <_>
      30. 84. 4219. 16755948. 71167. 4134. 4110. 10908. 1456. 4660.</_>
    <_>
      43. 77. 12411. 12739. 16251. 6384. 10850. 10829. 1194. 1861.</_>
    <_>
      38. 100. 10254. 12340. 16744724. 14159. 7514. 10253. 2481. 3098.</_>
    <_>
      63. 77. 16755244. 21066. 23799. 8306. 15965. 22047. 5156. 1490.</_>
    <_>
      47. 53. 39234. 16773232. 16772018. 11883. 5315. 11285. 1651. 1148.</_>
    <_>
      35. 50. 16746019. 22172. 14193. 8930. 1010. 7151. 4042. 2452.</_>
    <_>
      60. 75. 5003. 7796. 3438. 5151. 1623. 2869. 322. 175.</_>
    <_>
      30. 51. 369327. 142366. 91966. 16776837. 30684. 16756610. 4474.
      3302.</_>
    <_>
      51. 35. 10040. 9688. 2055. 5075. 3905. 1800. 1540. 841.</_>
    <_>
      53. 51. 5526. 29764. 17498. 8410. 3566. 7686. 1659. 1417.</_>
    <_>
      64. 40. 574722. 72343. 16745412. 7517. 19677. 12017. 2539. 2061.</_>
    <_>
      70. 67. 9932. 16492. 80347. 19944. 14964. 7176. 2247. 1325.</_>
    <_>
      38. 64. 15854. 29071. 91862. 17303. 7265. 10046. 1860. 1995.</_>
    <_>
      56. 100. 26426. 16745147. 17393. 18550. 14317. 20173. 2691. 2405.</_>
    <_>
      54. 60. 640056. 18384. 16775121. 11576. 8654. 8592. 1583. 1862.</_>
    <_>
      54. 57. 22877. 10509. 4953. 10659. 3624. 4174. 776. 176.</_>
    <_>
      51. 84. 5549. 12867. 16761941. 16751173. 8287. 16174. 7010. 2198.</_>
    <_>
      61. 48. 58396. 26164. 16744383. 4477. 23291. 8366. 1108. 1250.</_>
    <_>
      43. 61. 16752443. 15601. 19483. 10331. 8513. 2076. 2034. 756.</_>
    <_>
      38. 41. 26576. 12346. 12079. 4879. 15638. 10033. 2129. 829.</_>
    <_>
      60. 67. 18714. 23393. 16748739. 12746. 18049. 9946. 933. 1951.</_>
    <_>
      78. 54. 2347. 11720. 9601. 6083. 4877. 10112. 2270. 1348.</_>
    <_>
      64. 75. 1606033. 31916. 1275. 3663. 4506. 5890. 1405. 480.</_>
    <_>
      23. 97. 4461. 25708. 27685. 13912. 13678. 9016. 3726. 1624.</_>
    <_>
      51. 47. 7817. 6638. 9931. 5625. 1861. 5045. 798. 354.</_>
    <_>
      48. 60. 5890. 16759937. 1283. 22501. 12695. 4423. 2778. 2073.</_>
    <_>
      16. 56. 9809. 19810. 6280. 22783. 6203. 6546. 5138. 1322.</_>
    <_>
      44. 80. 72354. 2886. 245. 2380. 1551. 2172. 312. 71.</_>
    <_>
      51. 70. 13471. 15039. 15190. 15948. 4164. 4827. 2761. 2601.</_>
    <_>
      38. 69. 1243580. 95973. 104143. 16744639. 25833. 16750766. 9143.
      3170.</_>
    <_>
      26. 44. 90745. 14888. 2159. 13266. 7092. 8168. 1658. 8111.</_>
    <_>
      77. 83. 27639. 5647. 14742. 13546. 14682. 15997. 3677. 1748.</_>
    <_>
      50. 67. 1022. 31028. 29236. 8833. 3406. 6902. 2071. 1135.</_>
    <_>
      50. 50. 15361. 20976. 7058. 6025. 1534. 6664. 3246. 3623.</_>
    <_>
      44. 81. 68643. 16745813. 15930. 8245. 5954. 15136. 2413. 1041.</_>
    <_>
      63. 56. 12471. 78725. 23412. 19430. 7659. 11531. 693. 1081.</_>
    <_>
      94. 63. 11866. 9765. 6025. 4321. 1953. 4789. 376. 893.</_>
    <_>
      27. 57. 2050335. 173845. 8987. 15787. 31703. 19543. 2962. 2395.</_>
    <_>
      41. 75. 1722. 28403. 16761537. 19789. 6544. 6960. 1462. 1549.</_>
    <_>
      26. 70. 1747. 6175. 27173. 13369. 7122. 5137. 1456. 1102.</_>
    <_>
      66. 61. 4461. 24912. 17685. 12153. 2528. 7010. 4000. 1810.</_>
    <_>
      81. 67. 13911. 16750155. 14344. 8454. 4484. 16760002. 2042. 3061.</_>
    <_>
      56. 64. 12270. 9396. 6050. 4317. 12423. 14499. 3171. 2780.</_>
    <_>
      53. 66. 2097. 16034. 16759181. 12962. 9538. 11953. 3125. 1044.</_>
    <_>
      37. 43. 459088. 71229. 9560. 23745. 16418. 14988. 4755. 4581.</_>
    <_>
      48. 75. 352697. 16774901. 2850. 19029. 13729. 1517. 3199. 553.</_>
    <_>
      47. 91. 16758700. 13587. 6817. 5354. 23884. 9415. 994. 2316.</_>
    <_>
      67. 100. 20099. 11218. 82948. 17591. 5518. 20741. 1749. 1014.</_>
    <_>
      47. 27. 282433. 20097. 4443. 12452. 9160. 2949. 1809. 3890.</_>
    <_>
      63. 94. 18223. 6677. 32125. 6140. 8796. 19151. 4527. 4455.</_>
    <_>
      57. 57. 2097376. 300415. 16773068. 28205. 32147. 24626. 4270.
      5140.</_>
    <_>
      77. 93. 13. 3. 0. 1. 0. 0. 1. 0.</_>
    <_>
      60. 94. 22842. 11593. 11819. 5907. 15828. 11147. 2341. 1410.</_>
    <_>
      41. 77. 16749491. 16762595. 83238. 5742. 3741. 13293. 1626. 1369.</_>
    <_>
      37. 75. 2346. 29318. 16772342. 16751619. 6522. 13185. 2902. 4581.</_>
    <_>
      67. 26. 122988. 16758247. 22392. 30477. 15787. 16437. 8280. 3482.</_>
    <_>
      34. 35. 75902. 16746449. 5523. 5299. 11908. 4473. 4680. 3997.</_>
    <_>
      44. 26. 153895. 81595. 16757949. 5916. 18109. 8041. 4982. 1309.</_>
    <_>
      38. 81. 5714. 7159. 18667. 16757282. 4316. 4020. 5306. 1813.</_>
    <_>
      35. 64. 20663. 15649. 19228. 14042. 12653. 8406. 7091. 2146.</_>
    <_>
      53. 66. 11532. 16748892. 14382. 16748629. 18180. 6468. 3060. 1649.</_>
    <_>
      30. 83. 13237. 8434. 14710. 16754899. 19352. 10372. 5072. 5728.</_>
    <_>
      54. 66. 20063. 6236. 2716. 2423. 4250. 10431. 1611. 2455.</_>
    <_>
      80. 70. 4957. 19393. 5513. 5572. 5658. 14357. 2016. 5020.</_>
    <_>
      43. 84. 107190. 66820. 14973. 16771648. 8412. 10288. 2619. 4368.</_>
    <_>
      13. 87. 10196. 4879. 73376. 12467. 4582. 3465. 1249. 2041.</_>
    <_>
      35. 81. 89336. 117641. 11469. 94637. 12305. 7687. 4791. 2189.</_>
    <_>
      24. 50. 1471097. 108594. 68993. 21071. 7781. 7672. 2123. 1212.</_>
    <_>
      43. 61. 1729989. 121226. 26767. 65813. 31577. 24663. 20276. 10375.</_>
    <_>
      40. 81. 30206. 30215. 14344. 19815. 7321. 3943. 1784. 1363.</_>
    <_>
      26. 43. 799488. 396269. 11311. 16756241. 16414. 15582. 1579. 2642.</_>
    <_>
      81. 50. 19426. 11131. 4129. 8611. 3256. 4876. 2339. 1119.</_>
    <_>
      63. 60. 29065. 20308. 22433. 9660. 8171. 6411. 3430. 3087.</_>
    <_>
      41. 100. 7144. 3715. 11951. 14165. 2521. 2740. 3705. 2796.</_>
    <_>
      48. 80. 6083. 9584. 15673. 16608. 20491. 5972. 2539. 1813.</_>
    <_>
      48. 77. 42321. 16757666. 21624. 12868. 8410. 5634. 1928. 1841.</_>
    <_>
      53. 51. 75962. 67394. 16772809. 16656. 21380. 12113. 3098. 2659.</_>
    <_>
      69. 61. 13937. 7912. 17795. 20287. 4684. 18080. 1671. 852.</_>
    <_>
      57. 96. 16744725. 10972. 15743. 8501. 3619. 20621. 2340. 1635.</_>
    <_>
      77. 83. 16761697. 21614. 28861. 2820. 8735. 15579. 1641. 1534.</_>
    <_>
      48. 74. 2387. 16745945. 16775912. 14071. 15668. 6560. 2500. 994.</_>
    <_>
      53. 87. 2579. 13983. 6404. 5772. 3348. 9718. 3963. 955.</_>
    <_>
      77. 57. 6043. 6669. 9584. 13439. 9691. 10077. 2053. 499.</_>
    <_>
      80. 67. 65747. 72675. 31840. 18209. 10189. 22475. 3178. 3495.</_>
    <_>
      53. 67. 153476. 16764017. 16746287. 6760. 4175. 5684. 2382. 934.</_>
    <_>
      56. 81. 18546. 13089. 16746604. 23334. 4008. 20761. 7480. 930.</_>
    <_>
      75. 78. 14320. 6652. 16744760. 10178. 5035. 10574. 3020. 1096.</_>
    <_>
      54. 67. 10428. 23794. 34301. 11125. 15404. 13720. 5104. 1804.</_>
    <_>
      47. 43. 16969. 20670. 16746209. 4933. 8613. 11778. 1855. 1559.</_>
    <_>
      61. 57. 21730. 23732. 7369. 12968. 9607. 6633. 2000. 891.</_>
    <_>
      64. 61. 6694. 18934. 4477. 8938. 1098. 19272. 3342. 3934.</_>
    <_>
      84. 77. 16755240. 19956. 19561. 10365. 6891. 7838. 3350. 2590.</_>
    <_>
      50. 84. 16746399. 21832. 16766555. 16747035. 6225. 12159. 1140.
      1159.</_>
    <_>
      56. 48. 16757673. 16763860. 32474. 16031. 17461. 4258. 2033. 880.</_>
    <_>
      20. 90. 4278. 9201. 66089. 16766189. 7200. 5212. 1942. 2785.</_>
    <_>
      48. 80. 14105. 20636. 16776855. 5317. 8849. 18311. 1178. 1115.</_>
    <_>
      27. 80. 8944. 17379. 28591. 13597. 2196. 3402. 4719. 2891.</_>
    <_>
      26. 64. 24708. 16744854. 26150. 31964. 11077. 9357. 3299. 2063.</_>
    <_>
      60. 60. 4981. 26661. 8525. 17388. 9211. 5615. 2576. 1536.</_>
    <_>
      50. 75. 31610. 14264. 17742. 24855. 6098. 6670. 1266. 2999.</_>
    <_>
      50. 69. 9803. 16776892. 16770816. 9073. 12599. 4584. 2069. 424.</_>
    <_>
      64. 69. 37423. 10750. 2700. 10528. 6540. 4609. 2531. 2397.</_>
    <_>
      30. 29. 995841. 79120. 6033. 12454. 16425. 9320. 1687. 514.</_>
    <_>
      60. 74. 15756. 6544. 2956. 23888. 5629. 6061. 2290. 2237.</_>
    <_>
      44. 70. 131984. 13032. 18908. 831. 2278. 2077. 168. 16777189.</_>
    <_>
      69. 63. 374149. 11736. 4556. 8171. 8837. 8730. 4027. 4203.</_>
    <_>
      61. 97. 24831. 19980. 16748983. 27995. 3929. 20421. 2249. 1730.</_>
    <_>
      57. 84. 9768. 7551. 50177. 16765829. 4594. 9154. 1533. 829.</_>
    <_>
      53. 70. 15971. 7100. 16754471. 16756629. 7017. 10419. 2116. 494.</_>
    <_>
      43. 47. 1360358. 108521. 26131. 20509. 19795. 17750. 2858. 1158.</_>
    <_>
      50. 48. 1790. 2385. 2256. 3589. 4871. 1705. 414. 16777206.</_>
    <_>
      44. 30. 16755482. 27247. 2458. 5004. 21339. 28116. 1697. 856.</_>
    <_>
      23. 74. 16752729. 16746673. 31644. 15851. 6425. 11902. 2195. 1507.</_>
    <_>
      35. 61. 10842. 16765884. 13244. 14870. 4114. 5320. 2702. 1681.</_>
    <_>
      93. 83. 16744345. 8767. 2310. 3953. 2238. 2858. 1381. 624.</_>
    <_>
      51. 60. 270327. 5730. 2796. 2911. 6534. 2320. 1173. 1070.</_>
    <_>
      38. 70. 56487. 16754738. 19331. 6426. 13603. 5097. 1558. 392.</_>
    <_>
      50. 74. 17178. 29971. 16771004. 2683. 7288. 11617. 1968. 1564.</_>
    <_>
      51. 64. 16770796. 16760761. 26644. 5825. 10743. 7287. 2252. 781.</_>
    <_>
      77. 54. 18780. 12313. 6105. 10143. 9417. 5494. 645. 1576.</_>
    <_>
      35. 56. 1516204. 476857. 289703. 84033. 23755. 16756452. 4708.
      4278.</_>
    <_>
      53. 74. 5787. 27885. 24617. 14171. 4131. 18092. 2235. 1893.</_>
    <_>
      20. 48. 284105. 16769830. 4323. 4125. 4778. 1178. 2308. 1241.</_>
    <_>
      51. 57. 16770148. 8787. 7858. 7474. 7580. 4745. 1338. 817.</_>
    <_>
      77. 69. 18928. 7936. 7158. 12310. 4537. 12126. 504. 839.</_>
    <_>
      61. 77. 15431. 5997. 13502. 11615. 4030. 4514. 847. 648.</_>
    <_>
      21. 87. 19025. 7698. 7323. 7929. 14152. 7526. 2067. 1805.</_>
    <_>
      56. 75. 8121. 7222. 5471. 1680. 8786. 7095. 2166. 1740.</_>
    <_>
      78. 84. 16767452. 15390. 4235. 18718. 2815. 4987. 975. 802.</_>
    <_>
      60. 74. 49963. 71282. 7770. 12423. 11347. 8147. 985. 1046.</_>
    <_>
      80. 63. 15744. 6218. 13645. 4166. 3885. 2408. 703. 141.</_>
    <_>
      57. 23. 1303812. 16756951. 6289. 17705. 12844. 8576. 1948. 740.</_>
    <_>
      56. 91. 16754174. 22766. 16759806. 16766264. 23972. 19467. 3457.
      2292.</_>
    <_>
      16. 70. 25791. 67762. 16759913. 4556. 9449. 8689. 5233. 681.</_>
    <_>
      37. 1. 389467. 220920. 8853. 11853. 10543. 3011. 3981. 2509.</_>
    <_>
      70. 75. 16752421. 26658. 16748218. 13551. 12276. 9343. 4300. 2328.</_>
    <_>
      20. 14. 2034250. 330548. 25959. 17633. 5396. 5211. 1300. 1981.</_>
    <_>
      7. 13. 2687379. 379502. 16749209. 72400. 29317. 9093. 2925. 1964.</_>
    <_>
      10. 38. 802661. 25173. 11916. 6228. 6561. 4171. 849. 411.</_>
    <_>
      43. 74. 5698. 19779. 10634. 7395. 20842. 14902. 2575. 6505.</_>
    <_>
      35. 54. 27589. 88673. 15617. 19893. 5480. 4877. 1734. 2044.</_>
    <_>
      57. 44. 27636. 6394. 7814. 4328. 1256. 1491. 815. 484.</_>
    <_>
      64. 100. 24849. 31714. 16759727. 10258. 15511. 6180. 1678. 1550.</_>
    <_>
      54. 84. 23502. 18466. 16769522. 5876. 7497. 20833. 2142. 1012.</_>
    <_>
      37. 60. 16769502. 5154. 11906. 7415. 5037. 3589. 3967. 3418.</_>
    <_>
      96. 56. 686814. 16755592. 16755036. 16772224. 52581. 77156. 18386.
      11720.</_>
    <_>
      40. 17. 220527. 16770365. 16752806. 10414. 16750937. 21813. 28586.
      20729.</_>
    <_>
      57. 61. 78669. 15057. 3549. 3692. 3434. 5178. 941. 517.</_>
    <_>
      41. 54. 321520. 201300. 16763472. 8706. 12505. 6333. 12318. 6389.</_>
    <_>
      50. 80. 142768. 9976. 15887. 21696. 7502. 15124. 2063. 2723.</_>
    <_>
      34. 74. 76939. 16745654. 7036. 19227. 4532. 5937. 1237. 2198.</_>
    <_>
      63. 57. 7847. 21385. 9088. 6290. 4628. 7574. 4193. 5731.</_>
    <_>
      60. 69. 21972. 24343. 10513. 7063. 10412. 5539. 4437. 991.</_>
    <_>
      63. 83. 16763450. 7937. 16751863. 9712. 5097. 17683. 1571. 487.</_>
    <_>
      26. 53. 29770. 144806. 16232. 23816. 7364. 7758. 4212. 2637.</_>
    <_>
      57. 41. 6468. 17250. 7660. 11441. 3241. 9059. 2048. 2149.</_>
    <_>
      64. 23. 16760794. 23285. 14493. 12158. 9604. 8729. 1554. 2751.</_>
    <_>
      38. 48. 277706. 65643. 29025. 27063. 25058. 9263. 8981. 3216.</_>
    <_>
      50. 83. 459109. 127159. 16759643. 8670. 16769765. 16745736. 6245.
      20664.</_>
    <_>
      61. 69. 6848. 17772. 3295. 4822. 7691. 8069. 922. 1305.</_>
    <_>
      41. 67. 6705. 24981. 5283. 16008. 4260. 4043. 4169. 1760.</_>
    <_>
      21. 96. 88330. 16749763. 93300. 16123. 12324. 11201. 1309. 622.</_>
    <_>
      60. 69. 12439. 12667. 9654. 2762. 4197. 5703. 3624. 3015.</_>
    <_>
      40. 47. 225134. 18228. 16489. 19774. 7575. 6653. 4318. 2208.</_>
    <_>
      38. 100. 10962. 10652. 8223. 21174. 3296. 3654. 1816. 1857.</_>
    <_>
      47. 70. 6663. 8704. 29828. 12359. 7935. 5019. 1455. 1822.</_>
    <_>
      43. 100. 19018. 14983. 13916. 16756454. 3778. 9305. 1167. 1241.</_>
    <_>
      70. 48. 16756693. 28678. 9048. 10031. 3965. 5873. 671. 509.</_>
    <_>
      51. 77. 110765. 3674. 6937. 362. 395. 1243. 320. 261.</_>
    <_>
      78. 51. 24863. 18005. 13847. 18658. 17697. 18598. 2633. 1232.</_>
    <_>
      57. 66. 149096. 25739. 8258. 2659. 7105. 17154. 4914. 1747.</_>
    <_>
      26. 77. 70688. 25141. 6216. 16756016. 4611. 9697. 3225. 2847.</_>
    <_>
      63. 81. 12427. 10375. 21171. 19243. 1142. 8752. 1325. 2769.</_>
    <_>
      69. 70. 11854. 9207. 31585. 28643. 3478. 8873. 2959. 2321.</_>
    <_>
      51. 83. 16772767. 71264. 25204. 75448. 9157. 10207. 2870. 1965.</_>
    <_>
      63. 66. 713219. 16746161. 4644. 9568. 12759. 3829. 654. 439.</_>
    <_>
      44. 74. 341156. 78894. 16128. 30852. 7832. 11481. 2815. 1883.</_>
    <_>
      51. 67. 56686. 152646. 71816. 16763876. 16768331. 28345. 13499.
      3182.</_>
    <_>
      51. 94. 811067. 7264. 2241. 1727. 1565. 1513. 292. 16777127.</_>
    <_>
      44. 74. 3395. 12318. 37496. 14616. 8230. 13075. 2722. 779.</_>
    <_>
      66. 69. 8581. 11441. 10374. 11565. 2779. 6188. 11720. 2801.</_>
    <_>
      70. 64. 29844. 3865. 1969. 7205. 1609. 5010. 2178. 2369.</_>
    <_>
      84. 44. 35963. 469. 16777119. 288. 16777135. 269. 29. 28.</_>
    <_>
      83. 24. 20263. 17258. 10322. 6627. 30544. 15425. 5306. 1868.</_>
    <_>
      43. 100. 12752. 2240. 15062. 17128. 7239. 4067. 2625. 2291.</_>
    <_>
      41. 69. 49850. 4029. 6190. 5805. 3589. 8985. 11541. 8169.</_>
    <_>
      53. 7. 12079. 15569. 5495. 2224. 10971. 11810. 7169. 1513.</_>
    <_>
      54. 54. 26955. 19753. 14848. 13424. 2011. 10147. 2001. 806.</_>
    <_>
      67. 53. 15294. 26482. 13126. 3523. 3587. 12957. 1149. 1022.</_>
    <_>
      26. 50. 56789. 36628. 28544. 16756100. 16899. 14906. 2586. 2373.</_>
    <_>
      26. 10. 1186377. 303124. 16745131. 16752129. 16745506. 25744.
      6959. 4731.</_>
    <_>
      50. 56. 1121593. 217354. 76383. 16751368. 23453. 20266. 2562. 636.</_>
    <_>
      44. 63. 17237. 14501. 4177. 6462. 5447. 20316. 1251. 888.</_>
    <_>
      43. 80. 12020. 8454. 11232. 11605. 11427. 21867. 1702. 1128.</_>
    <_>
      81. 50. 10443. 25435. 16750328. 11134. 25976. 19529. 3393. 1396.</_>
    <_>
      50. 77. 22901. 24357. 21747. 15193. 3563. 6812. 2348. 1161.</_>
    <_>
      60. 64. 16750632. 18398. 12395. 2400. 5919. 7323. 1380. 2145.</_>
    <_>
      48. 78. 12464. 14420. 24038. 11274. 4921. 15815. 3752. 1615.</_>
    <_>
      91. 75. 7648. 7470. 7354. 16744529. 7200. 12420. 1881. 723.</_>
    <_>
      51. 81. 14341. 14464. 4131. 1551. 3684. 6976. 5327. 1861.</_>
    <_>
      91. 41. 19984. 8001. 2838. 4364. 4561. 7971. 4062. 10484.</_>
    <_>
      23. 37. 818825. 16774646. 16157. 7777. 1697. 8409. 2678. 3792.</_>
    <_>
      67. 69. 3801. 29116. 4828. 11687. 3950. 17232. 2413. 6469.</_>
    <_>
      61. 56. 10736. 9377. 14716. 15620. 8868. 12455. 1463. 1473.</_>
    <_>
      44. 57. 37424. 16757286. 15357. 3018. 5124. 12154. 1666. 2059.</_>
    <_>
      23. 44. 65548. 78507. 8705. 12020. 13212. 6782. 2508. 2052.</_>
    <_>
      74. 57. 4805. 11375. 8311. 19724. 7855. 18349. 1705. 2321.</_>
    <_>
      16. 48. 449660. 541982. 16753730. 27439. 31105. 16769082. 11596.
      14124.</_>
    <_>
      34. 37. 42843. 13074. 5348. 2344. 2488. 759. 195. 129.</_>
    <_>
      64. 51. 97427. 26134. 11318. 11744. 5927. 6147. 1755. 837.</_>
    <_>
      47. 75. 12770. 9849. 5645. 4981. 4076. 2484. 1250. 624.</_>
    <_>
      48. 78. 62283. 10452. 18552. 5731. 14259. 6461. 1529. 1598.</_>
    <_>
      53. 57. 16755552. 16745421. 72184. 20165. 6299. 8202. 4698. 2891.</_>
    <_>
      54. 26. 7827. 6967. 776. 1808. 1661. 3050. 238. 16777189.</_>
    <_>
      37. 61. 14833. 18131. 20993. 8160. 9982. 10237. 1279. 2041.</_>
    <_>
      67. 34. 622517. 6701. 2860. 740. 797. 974. 16777147. 127.</_>
    <_>
      66. 67. 636121. 19867. 20339. 23768. 2657. 16243. 3411. 1204.</_>
    <_>
      54. 88. 11975. 6830. 11010. 29252. 3642. 11593. 1096. 4007.</_>
    <_>
      41. 83. 3769. 22848. 11722. 14943. 5964. 8034. 2056. 1850.</_>
    <_>
      50. 60. 16755045. 22560. 5059. 13208. 6634. 9009. 2962. 1247.</_>
    <_>
      60. 34. 46069. 86675. 4704. 26349. 24179. 18571. 16717. 6279.</_>
    <_>
      66. 74. 7098. 14046. 30575. 16754440. 5501. 17280. 2084. 2464.</_>
    <_>
      64. 60. 18919. 17704. 2940. 6959. 3858. 10059. 5816. 4477.</_>
    <_>
      54. 26. 936078. 142860. 31418. 9164. 15335. 21455. 3393. 2301.</_>
    <_>
      50. 50. 16762453. 96987. 13288. 14637. 14475. 7813. 3693. 5450.</_>
    <_>
      40. 78. 22818. 4485. 20544. 9430. 11305. 14180. 3281. 1476.</_>
    <_>
      51. 53. 206292. 17799. 6984. 7813. 458. 5075. 723. 1439.</_>
    <_>
      34. 88. 16751049. 16756265. 16765386. 26260. 8192. 2984. 1976.
      959.</_>
    <_>
      66. 56. 5754. 27672. 11608. 2572. 6759. 7009. 1382. 1307.</_>
    <_>
      54. 41. 15061. 20023. 23639. 22832. 8036. 8671. 1768. 3905.</_>
    <_>
      35. 78. 21009. 73684. 11112. 32611. 4408. 6639. 920. 1918.</_>
    <_>
      83. 56. 13629. 9322. 10214. 23124. 5914. 10600. 1340. 805.</_>
    <_>
      41. 74. 7492. 17549. 16764967. 18345. 8057. 8010. 3339. 6778.</_>
    <_>
      8. 51. 19907. 16755575. 15493. 10009. 5558. 6450. 1860. 3487.</_>
    <_>
      47. 100. 8679. 14846. 75050. 10934. 11812. 14453. 7380. 2831.</_>
    <_>
      35. 100. 16746804. 17620. 29675. 15127. 6620. 6570. 1815. 2367.</_>
    <_>
      83. 67. 13789. 20812. 15065. 32463. 12302. 17070. 2128. 1235.</_>
    <_>
      56. 84. 19623. 18570. 16745138. 10622. 7005. 7420. 1413. 3136.</_>
    <_>
      38. 100. 18116. 10951. 26646. 17588. 13233. 4762. 2930. 1134.</_>
    <_>
      47. 83. 715351. 16745561. 59354. 9087. 7541. 14146. 6749. 8169.</_>
    <_>
      38. 80. 16744676. 4355. 32464. 22645. 6515. 2276. 3189. 1604.</_>
    <_>
      60. 56. 10677. 15785. 26742. 6218. 20932. 16657. 4850. 7381.</_>
    <_>
      70. 29. 287898. 38484. 12907. 5994. 4120. 13680. 6574. 3819.</_>
    <_>
      63. 84. 16760324. 4769. 16655. 20057. 3616. 9478. 2241. 964.</_>
    <_>
      60. 67. 11372. 16753837. 16840. 6164. 9578. 26992. 1535. 2734.</_>
    <_>
      74. 50. 19834. 12672. 11338. 11573. 14799. 10608. 2121. 875.</_>
    <_>
      66. 64. 13583. 7885. 2815. 8345. 4650. 9162. 2810. 2487.</_>
    <_>
      63. 67. 2365. 1869. 5103. 7573. 2830. 1478. 385. 203.</_>
    <_>
      43. 57. 94322. 16758535. 17502. 9130. 8358. 10043. 2424. 781.</_>
    <_>
      44. 66. 69602. 23437. 16748473. 3869. 16091. 8165. 1304. 1364.</_>
    <_>
      67. 96. 6050. 10734. 1561. 11046. 2068. 7785. 3014. 6995.</_>
    <_>
      78. 75. 11189. 16754808. 18916. 25769. 15494. 17678. 5452. 2126.</_>
    <_>
      61. 80. 15969. 8274. 10769. 2979. 1180. 11376. 5440. 451.</_>
    <_>
      50. 75. 9003. 13000. 13050. 25280. 1683. 18214. 1968. 6498.</_>
    <_>
      37. 100. 28840. 10043. 31736. 26058. 15884. 5248. 4320. 1347.</_>
    <_>
      67. 63. 324095. 10199. 3193. 6209. 2272. 2526. 228. 272.</_>
    <_>
      66. 78. 271830. 11894. 31513. 20297. 9681. 11119. 2677. 4983.</_>
    <_>
      87. 75. 20427. 17417. 4113. 5290. 1341. 5561. 458. 590.</_>
    <_>
      74. 26. 16749972. 9159. 1673. 1128. 762. 1242. 16777147. 16777157.</_>
    <_>
      51. 94. 7860. 18163. 16766103. 8744. 8833. 13300. 5712. 1738.</_>
    <_>
      21. 74. 806131. 20272. 4276. 6063. 1651. 544. 369. 350.</_>
    <_>
      40. 51. 11747. 27868. 28795. 11612. 4946. 10023. 1938. 3394.</_>
    <_>
      53. 100. 6100. 8872. 22053. 3066. 3594. 15841. 2429. 1918.</_>
    <_>
      48. 77. 10499. 16046. 2952. 12311. 8127. 6431. 1455. 1072.</_>
    <_>
      23. 97. 7821. 16750813. 8097. 6622. 15014. 10041. 3115. 1759.</_>
    <_>
      87. 70. 281890. 20630. 25501. 3799. 9631. 18637. 3185. 2613.</_>
    <_>
      41. 64. 16766351. 6636. 7400. 8023. 6740. 8261. 2469. 2905.</_>
    <_>
      60. 60. 16766930. 5764. 1016. 3419. 960. 1238. 305. 16777187.</_>
    <_>
      38. 90. 16750322. 16764503. 29376. 30720. 24655. 9409. 2658. 936.</_>
    <_>
      56. 77. 4904. 6770. 16745015. 16754876. 7640. 8923. 1706. 1445.</_>
    <_>
      54. 90. 8151. 4027. 19883. 25023. 11013. 13354. 903. 1332.</_>
    <_>
      30. 38. 1041345. 400650. 78082. 16765337. 16765093. 28543. 24284.
      9850.</_>
    <_>
      34. 97. 25337. 16754697. 16774767. 22554. 18217. 6237. 1202. 1262.</_>
    <_>
      51. 10. 625620. 127588. 13999. 5982. 2708. 4935. 1945. 1413.</_>
    <_>
      30. 84. 6056. 17600. 16751630. 20266. 3748. 11138. 4288. 2880.</_>
    <_>
      66. 24. 16374. 16744875. 14401. 16754452. 2993. 9282. 4572. 3924.</_>
    <_>
      53. 37. 33930. 71823. 7438. 3216. 7391. 7814. 1387. 2169.</_>
    <_>
      41. 51. 13333. 12499. 4192. 7611. 2166. 4838. 512. 875.</_>
    <_>
      30. 91. 3599. 22246. 13951. 4725. 9815. 8800. 1296. 1191.</_>
    <_>
      63. 87. 30142. 19821. 17924. 6861. 6300. 17994. 1221. 492.</_>
    <_>
      53. 74. 2771. 15741. 12912. 18197. 25266. 16317. 1241. 1534.</_>
    <_>
      70. 94. 16746330. 16748955. 15247. 16757612. 8597. 16618. 6751.
      3592.</_>
    <_>
      61. 75. 31169. 15477. 8521. 5601. 16065. 12835. 2607. 1861.</_>
    <_>
      61. 43. 20437. 17080. 4775. 18524. 17145. 5274. 4729. 8602.</_>
    <_>
      37. 83. 6730. 16119. 16767340. 5944. 8778. 5899. 2651. 1414.</_>
    <_>
      93. 75. 6330. 12579. 16773486. 16775042. 12480. 23815. 3035. 1931.</_>
    <_>
      37. 88. 11523. 16773123. 29521. 16005. 9633. 3842. 1648. 1232.</_>
    <_>
      63. 80. 8786. 16751416. 12157. 11560. 8169. 8150. 5367. 1551.</_>
    <_>
      67. 63. 11627. 14417. 16016. 12139. 12315. 13694. 485. 2537.</_>
    <_>
      26. 30. 85091. 16760668. 2408. 4758. 1624. 2263. 976. 927.</_>
    <_>
      70. 100. 16747795. 12706. 7597. 9263. 14607. 5726. 958. 2269.</_>
    <_>
      30. 84. 16745727. 27406. 16754933. 13608. 5878. 2363. 2477. 3002.</_>
    <_>
      30. 93. 83504. 22970. 16746141. 14936. 4347. 16332. 2231. 3143.</_>
    <_>
      21. 84. 16764059. 32233. 28871. 22619. 16280. 7321. 2628. 2436.</_>
    <_>
      70. 54. 9737. 12726. 16761383. 5520. 19893. 6455. 1894. 1056.</_>
    <_>
      66. 74. 23189. 28574. 4334. 16744352. 5848. 14431. 944. 1319.</_>
    <_>
      43. 44. 8034. 21918. 3006. 8689. 10034. 5933. 2149. 731.</_>
    <_>
      66. 64. 16761109. 3685. 1555. 3080. 2382. 2026. 16777194.
      16777170.</_>
    <_>
      84. 61. 23440. 22741. 16631. 16769376. 15918. 16844. 1150. 1762.</_>
    <_>
      63. 37. 17553. 3794. 16729. 7650. 6568. 18392. 4311. 4911.</_>
    <_>
      84. 48. 67002. 13451. 12206. 12584. 2562. 6079. 1458. 1040.</_>
    <_>
      47. 90. 440043. 29819. 14586. 16760514. 21165. 14884. 2275. 4902.</_>
    <_>
      40. 75. 2129. 5848. 8935. 3509. 1673. 3098. 1255. 1755.</_>
    <_>
      48. 67. 5183. 66677. 16749285. 16749204. 27204. 6811. 3455. 3522.</_>
    <_>
      69. 67. 16766780. 10313. 14024. 9422. 5880. 18864. 3245. 1050.</_>
    <_>
      26. 74. 15085. 31268. 6292. 6636. 5734. 5165. 8921. 1492.</_>
    <_>
      35. 40. 74586. 66149. 6200. 16744687. 17246. 28220. 6999. 4618.</_>
    <_>
      75. 100. 2152463. 8917. 19197. 11128. 9350. 2045. 741. 574.</_>
    <_>
      43. 66. 43871. 12698. 21914. 2973. 18765. 10830. 1712. 1525.</_>
    <_>
      84. 37. 15686. 7824. 7108. 12696. 4832. 15904. 1570. 2870.</_>
    <_>
      37. 70. 12336. 16752. 6759. 8367. 7469. 2913. 2630. 1244.</_>
    <_>
      97. 69. 220445. 95068. 71770. 16767110. 27371. 29450. 8666. 3491.</_>
    <_>
      27. 61. 359698. 16773652. 27900. 46585. 20670. 7808. 4033. 1900.</_>
    <_>
      53. 48. 67557. 21095. 16745921. 27159. 3221. 12220. 3123. 1660.</_>
    <_>
      67. 75. 15067. 12235. 31122. 8084. 4693. 3512. 1337. 432.</_>
    <_>
      80. 50. 8103. 6977. 6554. 25697. 7725. 9029. 4451. 2394.</_>
    <_>
      70. 29. 579083. 2890. 189. 1360. 657. 357. 108. 92.</_>
    <_>
      56. 64. 12765. 8756. 15503. 6350. 5339. 8897. 1923. 1375.</_>
    <_>
      74. 20. 6351. 14436. 3960. 4419. 1977. 10697. 2148. 906.</_>
    <_>
      60. 48. 13465. 16748533. 21880. 11897. 5854. 18750. 5189. 1687.</_>
    <_>
      34. 83. 17828. 7983. 13428. 27114. 3416. 6023. 3443. 2588.</_>
    <_>
      60. 64. 9830. 16747906. 16763380. 13041. 9898. 13155. 2927. 2963.</_>
    <_>
      44. 37. 2046946. 16746840. 5246. 12346. 16936. 9701. 2616. 829.</_>
    <_>
      63. 60. 2810. 20078. 16745664. 29514. 12815. 19333. 3120. 2466.</_>
    <_>
      43. 48. 15281. 32354. 7920. 12158. 7146. 5213. 479. 901.</_>
    <_>
      14. 94. 72727. 20928. 9345. 9865. 3670. 697. 176. 206.</_>
    <_>
      56. 64. 107345. 16777007. 16750278. 77934. 10854. 10631. 1521.
      1909.</_>
    <_>
      70. 81. 329331. 16748684. 6286. 10977. 2910. 5684. 1855. 1779.</_>
    <_>
      57. 43. 688422. 16754344. 16769076. 18622. 12177. 15454. 3117.
      4544.</_>
    <_>
      26. 60. 129378. 21449. 16771333. 10923. 16050. 10989. 5997. 2930.</_>
    <_>
      77. 57. 8585. 1964. 1595. 2408. 2297. 2411. 592. 741.</_>
    <_>
      97. 56. 95520. 3924. 387. 374. 545. 382. 72. 22.</_>
    <_>
      41. 91. 23975. 14280. 12724. 16752448. 3826. 9607. 2498. 1403.</_>
    <_>
      60. 94. 4393. 6416. 29792. 5574. 17109. 18397. 2241. 1908.</_>
    <_>
      91. 63. 288302. 8170. 9145. 4298. 3528. 10555. 17332. 11786.</_>
    <_>
      43. 90. 20660. 6945. 16748222. 5091. 5636. 5837. 2495. 1781.</_>
    <_>
      67. 84. 12863. 11874. 16768463. 16746511. 3477. 7194. 4275. 1085.</_>
    <_>
      27. 93. 20665. 20206. 6575. 19855. 8880. 4200. 2095. 1062.</_>
    <_>
      40. 90. 21148. 9854. 31727. 3944. 14753. 7050. 3413. 3132.</_>
    <_>
      48. 69. 18128. 27525. 32064. 22271. 5719. 11842. 3082. 1499.</_>
    <_>
      53. 77. 13959. 7528. 15868. 8713. 7572. 10433. 2339. 1091.</_>
    <_>
      37. 81. 29297. 24174. 12143. 19677. 7073. 5091. 3435. 2207.</_>
    <_>
      51. 70. 3431. 8057. 13498. 11588. 11901. 11764. 6324. 5243.</_>
    <_>
      57. 35. 548868. 228080. 8535. 22933. 32007. 16744998. 7558. 5308.</_>
    <_>
      44. 80. 808222. 200058. 16755014. 16761695. 16765229. 16753258.
      25942. 17871.</_>
    <_>
      51. 35. 349317. 80152. 17107. 17934. 20400. 16746024. 2944. 1579.</_>
    <_>
      70. 41. 110624. 92652. 17094. 22658. 16765896. 18155. 12994. 5440.</_>
    <_>
      47. 83. 106854. 19051. 7353. 14557. 11082. 5104. 3844. 1091.</_>
    <_>
      70. 90. 10224. 1838. 9536. 21669. 8795. 19813. 1657. 3251.</_>
    <_>
      37. 64. 1607. 5907. 5601. 12840. 5658. 3980. 1641. 1569.</_>
    <_>
      50. 88. 339142. 12477. 16745789. 2555. 4809. 17885. 3163. 3149.</_>
    <_>
      66. 70. 14484. 14567. 16747835. 10288. 6431. 11003. 3261. 3615.</_>
    <_>
      61. 57. 12140. 25640. 6721. 4529. 1408. 8048. 938. 4114.</_>
    <_>
      60. 57. 26154. 14465. 12767. 15974. 5792. 8403. 2014. 2316.</_>
    <_>
      48. 84. 27792. 16745413. 14549. 12730. 8994. 7689. 1588. 926.</_>
    <_>
      11. 75. 114998. 75888. 32401. 16574. 3539. 7126. 2550. 6559.</_>
    <_>
      53. 44. 915962. 9983. 6160. 7896. 2686. 1787. 558. 409.</_>
    <_>
      63. 78. 16770298. 85962. 16759859. 16761349. 16754964. 16990.
      4949. 4752.</_>
    <_>
      41. 75. 23188. 14368. 8002. 16756926. 21218. 11128. 948. 1004.</_>
    <_>
      21. 91. 71082. 28572. 17607. 28272. 11349. 19364. 1428. 2837.</_>
    <_>
      48. 83. 16757756. 16080. 5821. 757. 2660. 1833. 361. 351.</_>
    <_>
      53. 78. 2355. 26483. 16748533. 18701. 16072. 10538. 2396. 1030.</_>
    <_>
      100. 40. 249431. 16762214. 15911. 1431. 4957. 25007. 3019. 922.</_>
    <_>
      51. 69. 20517. 17860. 10133. 8778. 1809. 5987. 688. 873.</_>
    <_>
      78. 60. 16747561. 17442. 16484. 11526. 11455. 20159. 2329. 646.</_>
    <_>
      29. 51. 214844. 51027. 17305. 5627. 4099. 9242. 2572. 1348.</_>
    <_>
      64. 69. 66037. 16761404. 10480. 6226. 15531. 13857. 6151. 2625.</_>
    <_>
      94. 70. 16750087. 3042. 1861. 4731. 2588. 4309. 508. 770.</_>
    <_>
      13. 37. 1519195. 146176. 6206. 21489. 29121. 19985. 2134. 1676.</_>
    <_>
      48. 77. 13605. 24041. 31074. 7046. 8651. 11825. 2255. 1524.</_>
    <_>
      38. 48. 611816. 264748. 132192. 16757564. 24794. 17798. 10095.
      5962.</_>
    <_>
      51. 63. 1543. 12799. 18422. 8796. 9944. 4839. 3660. 1236.</_>
    <_>
      29. 96. 13474. 8343. 80340. 17630. 4833. 3427. 1724. 3703.</_>
    <_>
      53. 30. 65709. 16759720. 16705. 13341. 13851. 12631. 3782. 3705.</_>
    <_>
      70. 87. 6827. 30565. 18415. 79983. 3856. 12709. 3322. 1862.</_>
    <_>
      78. 67. 74902. 20858. 18531. 21620. 5138. 13408. 1360. 2920.</_>
    <_>
      53. 84. 30270. 17938. 15068. 15756. 8002. 11253. 907. 2528.</_>
    <_>
      48. 69. 751844. 6567. 3742. 2220. 2881. 1243. 421. 136.</_>
    <_>
      75. 69. 8598. 11072. 5896. 12646. 10233. 5014. 2944. 3481.</_>
    <_>
      61. 38. 14058. 10352. 11599. 6763. 3494. 8862. 2570. 3457.</_>
    <_>
      44. 69. 16746622. 11962. 30110. 3992. 6950. 11601. 2646. 1139.</_>
    <_>
      63. 51. 3475. 13512. 10658. 7752. 6028. 10278. 1614. 487.</_>
    <_>
      57. 47. 16748535. 20071. 19832. 17441. 20745. 9283. 1340. 1035.</_>
    <_>
      27. 34. 755816. 53443. 20432. 32544. 67358. 16754391. 24166.
      20700.</_>
    <_>
      44. 44. 16814. 16752612. 14169. 771. 2656. 7384. 1972. 3658.</_>
    <_>
      77. 61. 5964. 6568. 908. 2489. 2292. 3253. 519. 238.</_>
    <_>
      88. 47. 37716. 5435. 73101. 4834. 12428. 10322. 1242. 1947.</_>
    <_>
      70. 44. 97212. 27908. 18272. 3395. 5141. 16070. 3353. 1313.</_>
    <_>
      74. 26. 136066. 5785. 5449. 5205. 12343. 9737. 2742. 1981.</_>
    <_>
      48. 47. 66983. 21715. 13683. 8545. 10952. 8613. 5968. 2457.</_>
    <_>
      53. 87. 145557. 16754654. 16752225. 22350. 15253. 12301. 732. 767.</_>
    <_>
      67. 51. 22450. 11907. 30604. 9910. 5592. 12424. 1242. 475.</_>
    <_>
      54. 75. 2487. 9093. 30160. 8881. 7300. 3301. 1382. 4583.</_>
    <_>
      57. 41. 334804. 91545. 16769735. 30135. 8777. 11449. 3128. 3572.</_>
    <_>
      60. 66. 32054. 16745812. 4191. 29667. 6784. 11451. 2294. 1629.</_>
    <_>
      26. 54. 8400. 12223. 31181. 14195. 4766. 11995. 1811. 1126.</_>
    <_>
      56. 100. 26396. 15015. 28713. 22043. 3453. 16559. 3893. 3780.</_>
    <_>
      67. 70. 953166. 16769836. 7815. 3612. 16837. 4067. 706. 405.</_>
    <_>
      74. 64. 11198. 10651. 15180. 7588. 8726. 6902. 1275. 650.</_>
    <_>
      56. 100. 2337. 4508. 1841. 13248. 1211. 3245. 1471. 489.</_>
    <_>
      43. 63. 90241. 26984. 14066. 5967. 11754. 7363. 5180. 2069.</_>
    <_>
      66. 56. 18803. 16764779. 22376. 12482. 9616. 4599. 3347. 1078.</_>
    <_>
      61. 83. 153328. 16744917. 23622. 12572. 8114. 3850. 5232. 4851.</_>
    <_>
      80. 83. 16770056. 20891. 10136. 4756. 9822. 16821. 5857. 3113.</_>
    <_>
      38. 60. 1003539. 16764285. 3065. 11890. 7823. 6432. 2054. 451.</_>
    <_>
      53. 44. 288. 96. 84. 64. 36. 24. 12. 8.</_>
    <_>
      70. 60. 87254. 16762983. 15747. 5736. 9376. 9381. 8682. 5774.</_>
    <_>
      74. 74. 9595. 5046. 4920. 2825. 2086. 1264. 622. 535.</_>
    <_>
      23. 37. 333373. 19455. 16187. 5074. 3798. 3540. 1423. 1668.</_>
    <_>
      50. 90. 12425. 21516. 19466. 7392. 1084. 10311. 1764. 1058.</_>
    <_>
      41. 78. 7035. 21124. 31185. 10102. 7406. 6783. 2469. 905.</_>
    <_>
      21. 69. 13460. 12636. 81426. 13577. 9521. 11041. 787. 3479.</_>
    <_>
      61. 100. 16745464. 25104. 17349. 18051. 13528. 9396. 2455. 3146.</_>
    <_>
      21. 90. 24565. 16745461. 14849. 14726. 8903. 3675. 2141. 5404.</_>
    <_>
      44. 78. 8390. 15050. 16736. 12667. 5689. 11882. 2374. 1182.</_>
    <_>
      67. 75. 8765. 11943. 7947. 17528. 2368. 5083. 1540. 935.</_>
    <_>
      60. 54. 23629. 16747748. 16761219. 21617. 7277. 7396. 2125. 1572.</_>
    <_>
      53. 44. 22599. 32548. 2933. 14669. 4949. 9374. 1876. 2859.</_>
    <_>
      60. 75. 9183. 26135. 16842. 6260. 6567. 3784. 1994. 1718.</_>
    <_>
      57. 67. 4844. 19420. 10778. 8439. 6708. 5508. 5731. 3494.</_>
    <_>
      30. 78. 12743. 24827. 135428. 14286. 2543. 5101. 1755. 1235.</_>
    <_>
      34. 17. 796951. 16770363. 16760843. 16753521. 6539. 20175. 6547.
      3645.</_>
    <_>
      54. 91. 7865. 14728. 13343. 23557. 6518. 7427. 1706. 4573.</_>
    <_>
      44. 29. 348903. 63023. 1780. 11101. 11407. 4692. 1327. 685.</_>
    <_>
      53. 54. 447789. 10851. 5979. 1143. 2471. 1868. 973. 219.</_>
    <_>
      56. 90. 986637. 75180. 9403. 87074. 92014. 10042. 3962. 3512.</_>
    <_>
      64. 54. 133910. 32460. 12198. 1334. 4031. 4648. 506. 759.</_>
    <_>
      41. 94. 25226. 19381. 30529. 8301. 5403. 6093. 3782. 3863.</_>
    <_>
      56. 77. 22431. 11942. 18519. 19181. 5298. 7155. 990. 1141.</_>
    <_>
      27. 100. 1469. 4338. 16756806. 13513. 3980. 6412. 2813. 2776.</_>
    <_>
      74. 60. 12043. 24671. 25584. 5107. 6300. 10237. 3900. 1469.</_>
    <_>
      44. 57. 273069. 16763569. 49895. 26517. 28349. 14493. 4847. 3973.</_>
    <_>
      54. 70. 6045. 10824. 29333. 11100. 16539. 10390. 4156. 2371.</_>
    <_>
      53. 67. 3961. 26984. 16757743. 16415. 10904. 8080. 4479. 2713.</_>
    <_>
      80. 43. 15705. 75635. 20827. 17542. 7964. 4746. 2299. 2408.</_>
    <_>
      77. 56. 11564. 21029. 13980. 16745842. 5283. 10508. 1167. 2380.</_>
    <_>
      66. 67. 18395. 16533. 16751060. 14780. 14535. 7912. 3999. 5983.</_>
    <_>
      54. 47. 24143. 17950. 5301. 13479. 7108. 14952. 2950. 1125.</_>
    <_>
      40. 81. 6195. 7366. 1599. 6387. 7520. 7659. 8510. 4819.</_>
    <_>
      78. 57. 59341. 16749670. 12691. 12894. 8078. 10438. 3090. 1835.</_>
    <_>
      83. 51. 7352. 5513. 3560. 6305. 4160. 1501. 736. 549.</_>
    <_>
      53. 83. 4847. 8523. 31506. 23678. 8267. 12354. 4063. 4116.</_>
    <_>
      69. 69. 5023. 19310. 10201. 7117. 18970. 11698. 3793. 2030.</_>
    <_>
      38. 64. 7128. 16756780. 23673. 4656. 3635. 9691. 1855. 730.</_>
    <_>
      56. 60. 18083. 16774711. 16761998. 993. 4306. 15076. 2660. 2833.</_>
    <_>
      66. 54. 11366. 18640. 8987. 8687. 5370. 10403. 2407. 1331.</_>
    <_>
      56. 78. 162331. 16745939. 410. 22411. 9583. 3593. 2950. 1326.</_>
    <_>
      30. 75. 3646. 23881. 32461. 4644. 10751. 4071. 2217. 2613.</_>
    <_>
      69. 51. 20685. 16755573. 16754019. 25125. 7905. 7873. 3752. 4575.</_>
    <_>
      38. 10. 96980. 5007. 1006. 1395. 2702. 1972. 317. 16777100.</_>
    <_>
      11. 64. 65181. 16752447. 81962. 4007. 14358. 6751. 3095. 2865.</_>
    <_>
      41. 61. 26172. 17044. 7247. 2242. 4032. 1553. 226. 359.</_>
    <_>
      69. 61. 81786. 20781. 8646. 32158. 8706. 11388. 1829. 1228.</_>
    <_>
      48. 74. 22480. 24514. 14976. 3086. 14189. 8149. 1856. 928.</_>
    <_>
      77. 90. 12416. 10532. 32422. 3729. 9431. 22556. 1115. 972.</_>
    <_>
      53. 77. 30804. 16277. 9324. 5353. 8570. 6154. 2486. 3107.</_>
    <_>
      21. 13. 233595. 103785. 4987. 30222. 6628. 11845. 6786. 11049.</_>
    <_>
      23. 80. 16744627. 16774695. 19210. 27255. 12463. 7700. 1635. 1640.</_>
    <_>
      34. 96. 10905. 18547. 11741. 26161. 6337. 9437. 3009. 5272.</_>
    <_>
      47. 63. 16772098. 19344. 26726. 14439. 13258. 12835. 2725. 2194.</_>
    <_>
      47. 88. 4832. 7782. 16773187. 6176. 4633. 6915. 2607. 1389.</_>
    <_>
      43. 64. 2021. 12076. 7829. 9708. 7688. 4999. 3240. 1152.</_>
    <_>
      60. 60. 22836. 19402. 6911. 17567. 5304. 8032. 1194. 545.</_>
    <_>
      57. 67. 9904. 8826. 14385. 8334. 9740. 9634. 5844. 1401.</_>
    <_>
      53. 77. 16766205. 16910. 4442. 17458. 5884. 9467. 946. 755.</_>
    <_>
      69. 35. 16192. 19336. 1711. 8265. 17782. 7673. 1333. 482.</_>
    <_>
      23. 87. 18984. 13959. 10536. 9994. 15040. 4137. 1057. 806.</_>
    <_>
      47. 27. 180689. 16760070. 7780. 5440. 4443. 2563. 615. 193.</_>
    <_>
      69. 61. 19064. 28477. 16747113. 16758032. 4710. 5768. 1805. 1280.</_>
    <_>
      51. 81. 6358. 8414. 1374. 3169. 1661. 2672. 836. 279.</_>
    <_>
      63. 60. 37350. 19747. 22739. 9846. 4482. 6446. 3595. 1698.</_>
    <_>
      34. 90. 11295. 20015. 39587. 9082. 5138. 6646. 3148. 2151.</_>
    <_>
      29. 13. 2331092. 107884. 26326. 32378. 9810. 16754756. 8632. 6111.</_>
    <_>
      44. 91. 253582. 68640. 16766840. 16758361. 13073. 23643. 4576.
      2792.</_>
    <_>
      1. 100. 2258. 84209. 151630. 28601. 14130. 26301. 2907. 2140.</_>
    <_>
      44. 81. 4584. 7891. 13971. 16745844. 14686. 5612. 3949. 487.</_>
    <_>
      29. 61. 16757813. 16748885. 14968. 2988. 2169. 2729. 172.
      16777180.</_>
    <_>
      48. 91. 16752642. 16774877. 15235. 16753831. 28235. 5662. 8356.
      2198.</_>
    <_>
      69. 51. 3922. 15360. 13432. 12396. 17318. 11113. 1578. 4938.</_>
    <_>
      35. 38. 569350. 69377. 12321. 16759364. 16766198. 18160. 3118.
      2666.</_>
    <_>
      44. 84. 85442. 5168. 11025. 7301. 5832. 6607. 2700. 3343.</_>
    <_>
      47. 61. 8777. 19326. 10071. 16745341. 7565. 4814. 3348. 3751.</_>
    <_>
      54. 51. 14934. 30834. 6957. 2149. 2192. 8432. 1446. 1950.</_>
    <_>
      35. 67. 16755392. 16750112. 16758042. 27138. 8656. 3401. 1924.
      2076.</_>
    <_>
      53. 100. 9711. 1704. 12835. 1684. 687. 3257. 1907. 348.</_>
    <_>
      75. 66. 90327. 16764979. 14688. 26117. 15611. 22870. 5329. 3088.</_>
    <_>
      64. 60. 18726. 10581. 13858. 15375. 5327. 8507. 1475. 1420.</_>
    <_>
      20. 90. 654804. 54015. 77284. 7665. 22892. 19481. 4421. 2525.</_>
    <_>
      48. 69. 16759315. 70453. 18057. 23691. 9659. 9782. 1847. 1538.</_>
    <_>
      70. 83. 18007. 12785. 30312. 5219. 9222. 15165. 1041. 2763.</_>
    <_>
      34. 54. 897509. 167232. 16773418. 19598. 18904. 9105. 2675. 1599.</_>
    <_>
      77. 70. 65290. 20201. 10973. 27000. 6018. 10665. 698. 1367.</_>
    <_>
      40. 50. 11931. 18482. 25513. 27735. 7881. 11529. 1256. 985.</_>
    <_>
      57. 60. 16755945. 14515. 16754260. 15063. 9122. 11511. 1292. 1269.</_>
    <_>
      21. 100. 15275. 13548. 21302. 6328. 10378. 7908. 5008. 2835.</_>
    <_>
      88. 21. 12635. 11664. 4025. 6474. 5977. 10224. 1657. 3913.</_>
    <_>
      56. 77. 10531. 17724. 45851. 11152. 4971. 9152. 2102. 1584.</_>
    <_>
      43. 69. 10558. 19718. 5418. 1381. 10185. 9109. 3877. 806.</_>
    <_>
      63. 74. 16773119. 22030. 21383. 13248. 9051. 11407. 1763. 2202.</_>
    <_>
      20. 41. 99874. 16759453. 13600. 16751123. 14937. 14496. 2953.
      4450.</_>
    <_>
      51. 84. 22208. 4244. 29173. 12198. 4056. 8828. 2442. 3767.</_>
    <_>
      51. 67. 25822. 18367. 28805. 30231. 14299. 5346. 3472. 1313.</_>
    <_>
      53. 44. 30519. 20289. 5662. 2427. 186. 737. 16777116. 16777098.</_>
    <_>
      54. 67. 3414. 13204. 23113. 8217. 9875. 7877. 2435. 819.</_>
    <_>
      70. 66. 1483994. 377455. 49397. 20230. 67928. 16748332. 12769.
      6351.</_>
    <_>
      80. 57. 16770127. 10710. 6512. 5299. 1890. 1492. 2305. 507.</_>
    <_>
      26. 53. 10233. 7960. 8094. 4456. 2266. 3995. 3642. 1084.</_>
    <_>
      61. 54. 5427. 11176. 14528. 7517. 5189. 5127. 1917. 760.</_>
    <_>
      63. 80. 16775060. 12544. 3945. 21155. 3738. 13234. 3837. 1100.</_>
    <_>
      47. 70. 64988. 82309. 16752767. 7002. 2707. 6449. 2013. 2119.</_>
    <_>
      56. 81. 14498. 4852. 18556. 5574. 4694. 5351. 4637. 2101.</_>
    <_>
      74. 54. 11770. 16746858. 10182. 2110. 4718. 14176. 2747. 1012.</_>
    <_>
      70. 43. 11458. 16000. 21816. 16429. 6737. 2740. 1780. 1360.</_>
    <_>
      75. 61. 24736. 7798. 7323. 6731. 5475. 10948. 1512. 4798.</_>
    <_>
      64. 80. 16092. 21475. 5235. 12272. 9951. 7343. 4673. 1600.</_>
    <_>
      48. 50. 16770510. 69961. 27962. 7191. 26750. 20551. 2592. 982.</_>
    <_>
      53. 53. 19151. 16752246. 20281. 7492. 12559. 6288. 4711. 6956.</_>
    <_>
      60. 63. 289179. 30969. 3761. 4922. 10264. 16478. 2990. 1813.</_>
    <_>
      29. 93. 18712. 22970. 141382. 16287. 10029. 7413. 2019. 3859.</_>
    <_>
      91. 63. 1191453. 79958. 11425. 13182. 12045. 32140. 7591. 2027.</_>
    <_>
      16. 93. 23145. 12841. 23530. 4085. 3924. 5501. 621. 990.</_>
    <_>
      38. 63. 124283. 46557. 31087. 7306. 18474. 11605. 2719. 2082.</_>
    <_>
      61. 50. 21271. 14845. 16757461. 14252. 5196. 7761. 4437. 4021.</_>
    <_>
      43. 53. 419989. 100538. 47284. 15049. 82688. 15689. 8814. 1845.</_>
    <_>
      50. 74. 24495. 11111. 21642. 7792. 8592. 16343. 1786. 2277.</_>
    <_>
      43. 100. 200162. 18061. 70882. 16776969. 3737. 19368. 4317. 2544.</_>
    <_>
      63. 87. 6145. 5037. 3610. 4681. 10296. 2490. 1235. 843.</_>
    <_>
      91. 83. 351429. 44126. 16747078. 16772680. 32463. 16753867. 15177.
      1645.</_>
    <_>
      53. 53. 8089. 10724. 21940. 16738. 15343. 28208. 938. 1373.</_>
    <_>
      38. 63. 503556. 29036. 1195. 3935. 2478. 1331. 565. 308.</_>
    <_>
      26. 43. 16756272. 16748063. 2130. 6958. 10823. 5771. 1323. 777.</_>
    <_>
      64. 63. 2195. 16744844. 12802. 17667. 9808. 9755. 2619. 6969.</_>
    <_>
      50. 78. 15374. 33989. 16745222. 4751. 15609. 13996. 2882. 1941.</_>
    <_>
      27. 67. 2087. 14213. 16762865. 8194. 11805. 8545. 979. 1117.</_>
    <_>
      54. 53. 13205. 28649. 16748760. 20163. 4380. 3610. 1072. 419.</_>
    <_>
      56. 50. 10374. 28088. 8422. 19926. 8604. 12486. 1301. 2148.</_>
    <_>
      44. 84. 3606. 20972. 108179. 29342. 12531. 12993. 1828. 881.</_>
    <_>
      34. 74. 73768. 16762893. 13585. 6624. 4876. 7758. 1411. 2167.</_>
    <_>
      56. 54. 16756756. 8142. 1872. 3817. 1204. 5408. 1749. 1102.</_>
    <_>
      74. 47. 30130. 31784. 7016. 8432. 14664. 10324. 4730. 5970.</_>
    <_>
      27. 93. 13060. 11478. 16751301. 10284. 5421. 5597. 1137. 1606.</_>
    <_>
      51. 16. 77761. 16749136. 18864. 4234. 5509. 9781. 2279. 645.</_>
    <_>
      67. 70. 23454. 24388. 9595. 13893. 4771. 5737. 999. 1225.</_>
    <_>
      40. 88. 9150. 13083. 16751329. 16770198. 3458. 10280. 2223. 5122.</_>
    <_>
      27. 61. 69173. 158723. 30107. 5310. 6880. 6327. 751. 822.</_>
    <_>
      51. 60. 2249. 3149. 2754. 5682. 3385. 907. 174. 151.</_>
    <_>
      69. 48. 147688. 38930. 82620. 68593. 31162. 30606. 2805. 9423.</_>
    <_>
      61. 78. 16829. 14526. 8722. 10671. 6003. 12639. 1931. 1392.</_>
    <_>
      57. 38. 16756872. 16766505. 7499. 19947. 8295. 10474. 3114. 2392.</_>
    <_>
      64. 78. 17978. 7235. 16730. 9911. 12739. 12683. 4354. 3231.</_>
    <_>
      37. 97. 3544. 14488. 21980. 27119. 11346. 10394. 688. 976.</_>
    <_>
      53. 77. 8404. 16746943. 16762694. 4497. 5090. 11212. 1822. 1217.</_>
    <_>
      66. 48. 5028. 14452. 5068. 3239. 4227. 6512. 243. 878.</_>
    <_>
      47. 83. 11201. 20914. 6332. 11431. 3101. 11299. 3788. 1914.</_>
    <_>
      34. 100. 16746548. 10003. 11468. 22645. 3579. 6421. 963. 1355.</_>
    <_>
      48. 96. 229915. 16746290. 25963. 7827. 4899. 4920. 7222. 8758.</_>
    <_>
      29. 70. 17515. 16751887. 3811. 8872. 4547. 6650. 2775. 1507.</_>
    <_>
      48. 81. 23499. 7094. 27150. 7887. 6154. 21897. 1443. 1799.</_>
    <_>
      67. 70. 115321. 82106. 16761363. 22295. 22571. 28230. 6140. 7301.</_>
    <_>
      83. 61. 4455. 11168. 9288. 1366. 7898. 3855. 5977. 2557.</_>
    <_>
      34. 34. 99283. 16748032. 1606. 2884. 1340. 3182. 742. 469.</_>
    <_>
      64. 100. 110603. 16754367. 34072. 23989. 4744. 22332. 2799. 1623.</_>
    <_>
      60. 84. 11686. 4269. 13694. 2905. 3699. 3687. 387. 187.</_>
    <_>
      69. 35. 83152. 16764059. 16753375. 1151. 8780. 4485. 2720. 1546.</_>
    <_>
      69. 66. 14742. 7066. 16744677. 9801. 9367. 9742. 3499. 2198.</_>
    <_>
      37. 57. 814877. 16746216. 5058. 7416. 5429. 3389. 2135. 1374.</_>
    <_>
      41. 64. 28266. 10983. 17482. 15019. 9574. 12093. 6002. 1881.</_>
    <_>
      70. 61. 28012. 22580. 2772. 16865. 1453. 2769. 838. 566.</_>
    <_>
      47. 69. 15562. 3781. 10628. 7194. 1474. 7306. 3402. 1823.</_>
    <_>
      77. 60. 17494. 3793. 9099. 6732. 8440. 8707. 3174. 1128.</_>
    <_>
      74. 51. 16767339. 11053. 10463. 17193. 19142. 4128. 1649. 2023.</_>
    <_>
      60. 87. 23744. 25609. 16745760. 11215. 7808. 5042. 1971. 3400.</_>
    <_>
      87. 41. 7222. 5780. 10769. 4844. 10282. 24568. 1036. 732.</_>
    <_>
      81. 60. 18528. 11668. 11337. 16545. 5821. 13329. 1348. 2142.</_>
    <_>
      57. 69. 233882. 150215. 95385. 30411. 17757. 19305. 7377. 6076.</_>
    <_>
      61. 67. 16759743. 25454. 19059. 16769753. 9779. 5061. 2088. 1919.</_>
    <_>
      50. 91. 265935. 26602. 31578. 12087. 13661. 12109. 1744. 1081.</_>
    <_>
      63. 100. 22371. 23811. 55417. 12037. 11511. 14900. 5161. 3511.</_>
    <_>
      51. 61. 10931. 21045. 16758809. 5389. 4039. 8152. 2048. 1159.</_>
    <_>
      53. 69. 17724. 26108. 16745437. 25876. 11046. 14650. 5817. 1406.</_>
    <_>
      77. 70. 5733. 6154. 13132. 17531. 5244. 16984. 3782. 6481.</_>
    <_>
      88. 60. 20589. 29109. 20809. 17765. 7825. 14454. 3473. 1270.</_>
    <_>
      51. 53. 56574. 12156. 4149. 1757. 9522. 1594. 1169. 185.</_>
    <_>
      63. 74. 27528. 3148. 16749439. 13499. 23840. 23171. 3402. 1912.</_>
    <_>
      80. 67. 9114. 24710. 12497. 4435. 10922. 12010. 1897. 2263.</_>
    <_>
      61. 37. 16748604. 18247. 5262. 3471. 3158. 9604. 816. 224.</_>
    <_>
      40. 67. 10033. 3417. 14267. 28483. 4468. 9079. 2140. 826.</_>
    <_>
      63. 100. 8574. 24403. 16745519. 22370. 7595. 8270. 3665. 2161.</_>
    <_>
      56. 63. 15378. 12149. 16745926. 15356. 6358. 9421. 2918. 1583.</_>
    <_>
      51. 64. 6600. 7635. 11055. 13664. 13169. 16830. 1717. 3122.</_>
    <_>
      50. 43. 223182. 19801. 9007. 16948. 11332. 4721. 1807. 1236.</_>
    <_>
      34. 69. 28717. 6434. 14253. 16164. 7399. 9832. 1206. 1503.</_>
    <_>
      75. 63. 30232. 14100. 20652. 4527. 8618. 16253. 4543. 3216.</_>
    <_>
      61. 75. 7079. 4807. 16750106. 17093. 11752. 18132. 1458. 1056.</_>
    <_>
      64. 77. 16058. 11872. 16746254. 5042. 5947. 8943. 2998. 2815.</_>
    <_>
      43. 91. 8641. 15927. 7672. 17734. 5729. 9150. 2663. 1395.</_>
    <_>
      48. 77. 31613. 16750163. 77271. 15370. 7459. 8429. 649. 1137.</_>
    <_>
      44. 83. 5124. 31905. 6373. 10439. 7940. 11920. 1051. 609.</_>
    <_>
      53. 43. 20256. 22749. 2300. 3153. 11437. 10023. 5292. 2008.</_>
    <_>
      74. 48. 18526. 9319. 11555. 18880. 9694. 8663. 5646. 3535.</_>
    <_>
      41. 81. 20670. 9115. 16751051. 17262. 12112. 4853. 1597. 2500.</_>
    <_>
      37. 64. 60087. 16756950. 17810. 2664. 3212. 2650. 356. 181.</_>
    <_>
      67. 44. 6334. 9128. 8997. 3713. 7128. 14689. 1900. 749.</_>
    <_>
      40. 3. 867868. 97515. 23364. 92264. 16753776. 16775697. 16745570.
      16754099.</_>
    <_>
      60. 57. 149703. 47159. 91123. 21610. 4324. 7459. 1441. 1134.</_>
    <_>
      48. 63. 16753890. 16769174. 16757290. 23748. 16036. 16750762.
      7346. 4189.</_>
    <_>
      54. 66. 10282. 12031. 16725. 1348. 3891. 4280. 3872. 1841.</_>
    <_>
      81. 40. 94810. 25667. 6720. 9790. 10804. 14787. 1279. 1900.</_>
    <_>
      63. 74. 9795. 9030. 3015. 3208. 2574. 2260. 436. 349.</_>
    <_>
      57. 75. 3790. 17931. 16762608. 16784. 5884. 12902. 1860. 1702.</_>
    <_>
      30. 74. 5794. 13435. 11883. 3576. 2543. 4286. 3539. 4918.</_>
    <_>
      90. 38. 16772072. 27696. 27266. 9278. 2947. 12100. 1129. 911.</_>
    <_>
      43. 80. 10099. 9291. 16749179. 2201. 8387. 3870. 2096. 1768.</_>
    <_>
      40. 88. 199826. 16089. 16763594. 6032. 26552. 8535. 1929. 2544.</_>
    <_>
      75. 63. 27987. 15401. 20051. 19358. 11810. 29793. 1627. 1005.</_>
    <_>
      83. 83. 16748399. 10643. 9411. 8758. 4098. 25214. 4441. 2525.</_>
    <_>
      8. 50. 163559. 82166. 21488. 1346. 6121. 3061. 2056. 710.</_>
    <_>
      66. 54. 54739. 29121. 5037. 30508. 2937. 10162. 1857. 765.</_>
    <_>
      64. 60. 16762048. 24550. 16760628. 4280. 18718. 10516. 1676. 1264.</_>
    <_>
      57. 63. 23698. 22485. 10710. 28391. 18110. 8987. 1445. 2446.</_>
    <_>
      69. 63. 16757700. 21528. 12080. 6064. 15172. 17423. 4147. 1593.</_>
    <_>
      66. 84. 53504. 77551. 16767188. 32487. 16749543. 8683. 2745. 1282.</_>
    <_>
      53. 47. 4541. 16751124. 10539. 11824. 9353. 8747. 12128. 2985.</_>
    <_>
      47. 60. 15817. 8972. 23452. 9843. 11369. 16524. 2309. 664.</_>
    <_>
      47. 66. 94171. 30530. 2153. 15276. 5007. 7951. 727. 1675.</_>
    <_>
      47. 84. 11693. 16752663. 27810. 13312. 8014. 5641. 945. 2389.</_>
    <_>
      53. 80. 16754898. 19450. 16758376. 11322. 12744. 10568. 1123.
      1447.</_>
    <_>
      26. 61. 17504. 29295. 29278. 31161. 11025. 7715. 1597. 1655.</_>
    <_>
      67. 44. 37739. 29918. 3081. 5666. 6959. 2940. 1159. 696.</_>
    <_>
      48. 64. 60316. 16745961. 15986. 16755. 4906. 8850. 1135. 1339.</_>
    <_>
      56. 44. 6421. 16099. 18395. 11087. 16075. 16755935. 1270. 2598.</_>
    <_>
      75. 75. 29089. 16290. 10568. 20055. 21142. 19048. 1351. 952.</_>
    <_>
      41. 70. 15581. 10474. 7045. 20652. 7048. 3491. 3422. 1249.</_>
    <_>
      81. 64. 21047. 4415. 13510. 763. 3360. 4154. 416. 783.</_>
    <_>
      78. 50. 13324. 22437. 16754432. 7580. 5804. 11263. 2383. 1442.</_>
    <_>
      29. 80. 22402. 13334. 12657. 8725. 3170. 6374. 2069. 3283.</_>
    <_>
      48. 100. 3116. 19694. 16758741. 5263. 5756. 17254. 2555. 1359.</_>
    <_>
      48. 88. 8176. 7533. 32548. 22213. 4703. 7268. 1774. 1467.</_>
    <_>
      70. 80. 16757428. 12241. 9082. 747. 6112. 10562. 2672. 2904.</_>
    <_>
      91. 77. 13547. 5992. 23551. 21163. 3010. 13797. 1820. 880.</_>
    <_>
      61. 47. 2454. 7850. 4526. 5961. 6437. 12715. 3435. 2749.</_>
    <_>
      56. 44. 169148. 24637. 8869. 16034. 4271. 5014. 3241. 1238.</_>
    <_>
      51. 51. 374892. 3782. 4706. 10373. 2332. 772. 16777161. 16777190.</_>
    <_>
      61. 48. 175516. 16746040. 16125. 8836. 8564. 6513. 811. 969.</_>
    <_>
      50. 84. 71541. 21814. 20753. 16776644. 8485. 8443. 1330. 1948.</_>
    <_>
      44. 87. 8004. 15866. 16755675. 16749944. 3046. 10083. 964. 1145.</_>
    <_>
      43. 80. 20036. 7674. 10631. 14537. 4417. 5194. 3682. 1105.</_>
    <_>
      29. 69. 16766445. 3604. 1919. 10084. 3214. 1539. 325. 130.</_>
    <_>
      26. 100. 8647. 20451. 70894. 16758601. 10386. 4515. 3252. 2035.</_>
    <_>
      56. 64. 7079. 7051. 24516. 17796. 8647. 6034. 2421. 1351.</_>
    <_>
      40. 66. 2656331. 63579. 68863. 16013. 7614. 7073. 2456. 2851.</_>
    <_>
      56. 63. 10473. 10044. 2411. 10305. 8111. 4325. 2857. 964.</_>
    <_>
      41. 41. 144189. 16751463. 15050. 19818. 12801. 8715. 6627. 2789.</_>
    <_>
      35. 8. 241400. 86717. 8411. 7711. 15080. 11580. 5219. 3033.</_>
    <_>
      77. 69. 78747. 16608. 9989. 13746. 14966. 8680. 2422. 3354.</_>
    <_>
      70. 53. 17819. 8686. 1830. 13739. 6481. 8245. 1767. 934.</_>
    <_>
      4. 8. 16749937. 17968. 5429. 1710. 1768. 585. 153. 196.</_>
    <_>
      48. 57. 28335. 4692. 25558. 9581. 15572. 8732. 3686. 2331.</_>
    <_>
      1. 75. 16759593. 16759970. 16773227. 22919. 25435. 6096. 4974.
      1945.</_>
    <_>
      69. 48. 529126. 114802. 70067. 72464. 16776153. 16773421. 8160.
      4711.</_>
    <_>
      34. 60. 3331. 14304. 16754696. 13109. 12096. 9946. 2349. 2104.</_>
    <_>
      26. 48. 16766758. 7232. 235. 2791. 1078. 743. 310. 16777148.</_>
    <_>
      54. 57. 18095. 49016. 19480. 9058. 7003. 18659. 2138. 1851.</_>
    <_>
      54. 97. 26713. 18269. 18035. 11485. 8061. 11528. 1842. 1397.</_>
    <_>
      63. 75. 176375. 16752510. 14913. 5132. 20664. 6315. 2099. 957.</_>
    <_>
      53. 53. 4674. 19741. 4856. 20212. 6490. 17728. 1774. 1391.</_>
    <_>
      51. 61. 6232. 8291. 19061. 24256. 6910. 7847. 949. 4372.</_>
    <_>
      84. 50. 15116. 21545. 11511. 24957. 6170. 11339. 1699. 910.</_>
    <_>
      51. 66. 16744437. 10096. 1607. 7461. 4269. 7879. 3208. 1627.</_>
    <_>
      60. 94. 16437. 7808. 16761628. 4553. 3600. 2951. 1772. 2748.</_>
    <_>
      38. 84. 21339. 16759597. 7054. 8523. 2557. 13974. 2681. 2374.</_>
    <_>
      27. 80. 63758. 16770. 16748276. 4415. 19947. 6988. 2447. 736.</_>
    <_>
      50. 56. 20977. 13904. 20860. 18831. 10478. 6923. 2697. 1956.</_>
    <_>
      48. 63. 264667. 9481. 147682. 16775028. 7379. 10108. 1807. 2044.</_>
    <_>
      64. 63. 14886. 11214. 9454. 5754. 5146. 13483. 3076. 1761.</_>
    <_>
      37. 61. 16749712. 16762773. 23764. 3971. 3284. 2519. 667. 1037.</_>
    <_>
      50. 77. 11842. 17791. 9419. 13163. 13686. 8698. 647. 1645.</_>
    <_>
      51. 80. 6848. 21860. 14768. 6610. 8339. 15145. 3160. 2754.</_>
    <_>
      64. 70. 23760. 18654. 8630. 14730. 5276. 6739. 1861. 1642.</_>
    <_>
      24. 100. 9465. 18696. 16746961. 10070. 10942. 6353. 3375. 1592.</_>
    <_>
      27. 66. 11239. 16757649. 16768577. 16748471. 9620. 9939. 2273.
      2629.</_>
    <_>
      61. 56. 144356. 14084. 425. 1224. 1558. 1487. 16777146. 16777166.</_>
    <_>
      67. 51. 22036. 16746432. 26996. 16765481. 21793. 20517. 5115.
      1513.</_>
    <_>
      30. 80. 73703. 11970. 9037. 16762455. 11290. 16379. 3824. 3619.</_>
    <_>
      47. 90. 199541. 26152. 5939. 1907. 1984. 1324. 402. 366.</_>
    <_>
      44. 47. 678673. 75851. 15560. 4006. 16443. 6879. 1328. 608.</_>
    <_>
      44. 57. 24777. 9122. 9788. 7490. 7473. 18754. 2986. 1828.</_>
    <_>
      53. 66. 13778. 7123. 15227. 12100. 5467. 15121. 3203. 1039.</_>
    <_>
      61. 37. 1129154. 74380. 3234. 3072. 4784. 1740. 144. 221.</_>
    <_>
      47. 44. 202052. 25649. 4466. 15798. 16296. 6691. 4470. 4419.</_>
    <_>
      56. 53. 542782. 410. 1913. 2591. 1399. 982. 16777112. 113.</_>
    <_>
      75. 84. 16744866. 21041. 3805. 10285. 1675. 3562. 975. 780.</_>
    <_>
      44. 77. 18833. 28083. 78274. 16753517. 3425. 3460. 3402. 673.</_>
    <_>
      23. 50. 46820. 16759063. 5511. 12155. 11783. 5425. 2099. 4656.</_>
    <_>
      57. 96. 8375. 18200. 9792. 25430. 11202. 13023. 1706. 409.</_>
    <_>
      21. 13. 57344. 68937. 4659. 5577. 5988. 4338. 1461. 3575.</_>
    <_>
      48. 44. 159467. 27655. 16747013. 19058. 8037. 13127. 1807. 1640.</_>
    <_>
      41. 80. 69291. 16758857. 16762080. 32351. 13125. 4219. 4429. 1758.</_>
    <_>
      88. 61. 18819. 4495. 4038. 4006. 7339. 10458. 3598. 1185.</_>
    <_>
      60. 78. 94714. 61266. 68488. 78087. 6404. 23547. 8515. 2623.</_>
    <_>
      14. 51. 20461. 22274. 13843. 23946. 8543. 5841. 1438. 2099.</_>
    <_>
      69. 74. 8990. 21816. 11578. 18562. 7389. 6506. 1624. 1587.</_>
    <_>
      43. 67. 12420. 16744572. 16772821. 12868. 3782. 8860. 2881. 2488.</_>
    <_>
      63. 66. 3819. 23337. 17153. 4669. 12865. 11574. 3911. 1627.</_>
    <_>
      77. 93. 643738. 305309. 14175. 13524. 18427. 24564. 4868. 6249.</_>
    <_>
      67. 41. 9452. 5817. 1302. 5060. 5147. 7018. 2281. 1607.</_>
    <_>
      34. 80. 2438. 24237. 16756012. 11889. 1878. 10497. 2145. 2237.</_>
    <_>
      37. 87. 6112. 5504. 16746690. 9607. 7676. 11894. 1197. 4084.</_>
    <_>
      20. 27. 187047. 16767535. 16751118. 5172. 15309. 3712. 6921. 1137.</_>
    <_>
      61. 75. 16746357. 7857. 13119. 16298. 5353. 8441. 2770. 1796.</_>
    <_>
      50. 23. 153414. 89982. 19461. 14776. 10534. 16849. 9428. 8010.</_>
    <_>
      63. 70. 11034. 18533. 3410. 12998. 1533. 4677. 839. 1606.</_>
    <_>
      74. 77. 16066. 4518. 4608. 11541. 1101. 2835. 226. 507.</_>
    <_>
      17. 78. 4812. 27546. 20424. 16745338. 20578. 15322. 1759. 3704.</_>
    <_>
      29. 50. 16756406. 16767331. 2865. 30542. 8314. 10461. 2110. 2573.</_>
    <_>
      26. 69. 6767. 30099. 16763389. 24803. 7732. 9004. 1315. 1137.</_>
    <_>
      51. 100. 16756272. 28320. 16750066. 7198. 7851. 7466. 1177. 1163.</_>
    <_>
      29. 67. 16747485. 16761055. 16768724. 4955. 27237. 5892. 3420.
      2578.</_>
    <_>
      57. 56. 5554. 9251. 9007. 1900. 12787. 6490. 2704. 1205.</_>
    <_>
      64. 57. 11821. 6693. 16368. 21289. 7198. 10392. 10104. 6712.</_>
    <_>
      57. 38. 1915. 8093. 2183. 16579. 16902. 13560. 8217. 2168.</_>
    <_>
      44. 67. 18775. 11238. 16745223. 27593. 14143. 8725. 5358. 8611.</_>
    <_>
      53. 43. 131978. 145144. 12327. 20419. 15981. 10634. 2249. 3296.</_>
    <_>
      60. 74. 11079. 5385. 2809. 4648. 5461. 6479. 3031. 668.</_>
    <_>
      20. 27. 1532689. 631364. 72278. 81318. 19967. 16754918. 10573.
      2870.</_>
    <_>
      34. 78. 28455. 16755967. 18242. 10161. 5147. 7477. 665. 2501.</_>
    <_>
      50. 70. 3023. 16094. 8731. 11526. 5865. 5143. 1303. 1140.</_>
    <_>
      63. 80. 16753480. 28895. 16764534. 4465. 8131. 12782. 1535. 1085.</_>
    <_>
      50. 100. 7297. 1655. 14611. 18224. 5656. 8856. 3857. 2232.</_>
    <_>
      91. 53. 15884. 30188. 16765784. 12283. 15736. 13163. 3612. 524.</_>
    <_>
      78. 60. 20480. 13450. 11159. 30485. 25545. 6067. 948. 2896.</_>
    <_>
      63. 56. 12278. 19728. 7914. 7527. 6618. 10330. 1181. 1477.</_>
    <_>
      51. 41. 150492. 22815. 10909. 9481. 8081. 7102. 2024. 731.</_>
    <_>
      40. 83. 16745825. 20033. 31685. 8223. 4610. 6708. 9462. 7805.</_>
    <_>
      37. 83. 54993. 16756086. 38207. 12415. 21634. 11861. 4713. 2405.</_>
    <_>
      84. 75. 4495. 6108. 3246. 15251. 6516. 25441. 1258. 1250.</_>
    <_>
      56. 87. 17929. 17783. 3889. 20980. 2888. 9799. 674. 826.</_>
    <_>
      54. 67. 15995. 17805. 18350. 27079. 1943. 11682. 5783. 1017.</_>
    <_>
      74. 53. 11830. 5296. 16227. 6967. 12163. 13457. 2589. 1431.</_>
    <_>
      43. 60. 6059. 15430. 7225. 225. 1515. 8506. 2406. 1786.</_>
    <_>
      64. 61. 29554. 28485. 15485. 6222. 7967. 5782. 2304. 2959.</_>
    <_>
      54. 66. 22233. 12004. 16763963. 7556. 18545. 11393. 1223. 3288.</_>
    <_>
      57. 47. 629366. 415840. 16776293. 9161. 30006. 16747942. 8005.
      4711.</_>
    <_>
      34. 54. 13527. 12341. 5780. 20099. 23014. 9773. 4323. 4668.</_>
    <_>
      83. 64. 30122. 31747. 9638. 10086. 9289. 20682. 2314. 1295.</_>
    <_>
      67. 54. 16751520. 25932. 1529. 11349. 15147. 8213. 1386. 1150.</_>
    <_>
      61. 41. 1115946. 39789. 16761544. 7984. 12746. 20450. 3725. 2160.</_>
    <_>
      34. 40. 783167. 20682. 1831. 3523. 5217. 1247. 4229. 472.</_>
    <_>
      27. 56. 17270. 5710. 3339. 8104. 774. 1145. 1281. 500.</_>
    <_>
      27. 100. 3604. 4230. 16745244. 26563. 1663. 24593. 1326. 1450.</_>
    <_>
      56. 63. 16756036. 16766114. 20958. 16745948. 7789. 10074. 4651.
      5510.</_>
    <_>
      30. 77. 28294. 13001. 17955. 7099. 8262. 6815. 1346. 1495.</_>
    <_>
      53. 30. 8643. 16748280. 19382. 11702. 7409. 4046. 1746. 1531.</_>
    <_>
      60. 80. 20763. 67591. 32101. 1101. 15200. 6758. 4207. 2924.</_>
    <_>
      81. 100. 22235. 16745029. 16758489. 11732. 22093. 13613. 5102.
      1894.</_>
    <_>
      29. 90. 14062. 23279. 19536. 14159. 10012. 6645. 3193. 1998.</_>
    <_>
      84. 60. 6692. 3195. 3507. 3492. 1754. 5255. 1016. 296.</_>
    <_>
      77. 51. 14488. 10787. 9893. 20867. 17666. 17871. 2566. 2672.</_>
    <_>
      69. 60. 15867. 9690. 23886. 16453. 6721. 9513. 6174. 4301.</_>
    <_>
      84. 70. 4399. 13708. 14877. 24209. 13237. 14799. 959. 2577.</_>
    <_>
      63. 41. 164137. 37613. 16748970. 22354. 20458. 16672. 2437. 1509.</_>
    <_>
      51. 87. 4321. 7828. 5695. 4021. 5770. 1766. 711. 398.</_>
    <_>
      50. 77. 16755256. 17547. 22883. 10414. 6361. 12435. 1546. 920.</_>
    <_>
      50. 51. 13009. 16759205. 16746327. 3375. 18451. 20520. 2889. 1226.</_>
    <_>
      69. 67. 5554. 15811. 16935. 12105. 12806. 25002. 2177. 1438.</_>
    <_>
      63. 61. 16749933. 2259. 14793. 13439. 15254. 24905. 6352. 8645.</_>
    <_>
      63. 40. 70420. 16762564. 27944. 14211. 7378. 11362. 3107. 2338.</_>
    <_>
      34. 26. 223614. 122177. 11858. 8326. 9480. 9562. 8041. 1826.</_>
    <_>
      78. 66. 8014. 20350. 19187. 13656. 6934. 11533. 4270. 5243.</_>
    <_>
      50. 63. 20879. 23560. 32168. 3002. 6024. 9052. 6094. 2215.</_>
    <_>
      60. 97. 603122. 16763706. 79445. 20646. 10828. 6793. 4481. 903.</_>
    <_>
      63. 100. 16746670. 8441. 14831. 14259. 14241. 6196. 2792. 1595.</_>
    <_>
      35. 80. 69495. 24266. 30280. 12650. 8599. 4489. 2251. 645.</_>
    <_>
      16. 83. 25534. 15907. 18947. 9418. 10002. 8786. 4802. 1065.</_>
    <_>
      44. 75. 19035. 3654. 6997. 3498. 3061. 4500. 2948. 4733.</_>
    <_>
      61. 75. 28416. 9532. 8430. 8966. 5447. 8772. 3898. 1452.</_>
    <_>
      38. 60. 7253. 16072. 13028. 7019. 3811. 8724. 1433. 3906.</_>
    <_>
      93. 56. 18793. 13625. 26873. 9086. 22405. 9354. 1904. 457.</_>
    <_>
      56. 60. 11022. 32262. 16745557. 21237. 2298. 25210. 2299. 2357.</_>
    <_>
      30. 69. 152052. 31289. 11318. 6049. 3682. 7471. 1748. 2010.</_>
    <_>
      48. 70. 16567. 16764780. 16744585. 28717. 10341. 19479. 904. 698.</_>
    <_>
      53. 91. 25769. 9962. 16757894. 16736. 10866. 7561. 3603. 3454.</_>
    <_>
      61. 66. 16750366. 25102. 13641. 16930. 18084. 14982. 5463. 6349.</_>
    <_>
      64. 66. 12926. 31534. 18430. 19385. 6856. 10939. 4123. 2530.</_>
    <_>
      44. 54. 3096322. 16753262. 15861. 12166. 8115. 4615. 1658. 790.</_>
    <_>
      66. 77. 16765342. 11077. 20609. 13957. 7431. 6931. 1540. 1652.</_>
    <_>
      64. 41. 1988. 7172. 5636. 11071. 10884. 6065. 3715. 1788.</_>
    <_>
      77. 93. 53721. 20629. 28072. 16754493. 20305. 9962. 8438. 7211.</_>
    <_>
      37. 70. 16753158. 19936. 3851. 14532. 22377. 13915. 1519. 2393.</_>
    <_>
      40. 37. 298454. 38044. 29389. 72942. 16760372. 15299. 3769. 3294.</_>
    <_>
      44. 100. 13359. 4519. 3897. 4457. 938. 1866. 241. 209.</_>
    <_>
      70. 61. 16746388. 2179. 3293. 15132. 4101. 8890. 2908. 3245.</_>
    <_>
      84. 78. 79940. 10998. 13769. 8962. 13604. 9534. 1807. 2206.</_>
    <_>
      35. 78. 16753317. 3794. 20738. 12225. 11395. 2984. 3213. 4898.</_>
    <_>
      56. 77. 41174. 16745922. 30540. 20947. 11595. 7396. 3575. 5047.</_>
    <_>
      67. 87. 16744864. 6481. 16745804. 17091. 18839. 9917. 1440. 2702.</_>
    <_>
      40. 87. 16553. 7579. 12710. 16510. 10884. 6539. 1422. 1720.</_>
    <_>
      30. 47. 790289. 496419. 52885. 70424. 21262. 16539. 10568. 5922.</_>
    <_>
      78. 53. 695500. 16746990. 7022. 3428. 5059. 5294. 1935. 2048.</_>
    <_>
      53. 75. 12143. 9651. 20639. 13483. 9483. 5389. 5924. 1933.</_>
    <_>
      43. 64. 13767. 16750852. 12359. 28666. 11076. 4813. 2109. 1191.</_>
    <_>
      40. 80. 788. 12433. 16746335. 32521. 7284. 13109. 3082. 3325.</_>
    <_>
      48. 64. 3099. 16499. 12549. 29291. 9120. 2717. 3172. 4433.</_>
    <_>
      50. 54. 16775872. 16388. 11253. 25582. 5948. 10892. 2163. 197.</_>
    <_>
      51. 69. 16745524. 16747233. 24285. 32121. 6371. 11799. 1307. 1486.</_>
    <_>
      57. 75. 10875. 11575. 6170. 12248. 10204. 9543. 2150. 1218.</_>
    <_>
      21. 64. 3766. 7982. 5593. 1446. 21113. 3269. 1130. 1259.</_>
    <_>
      38. 38. 16756146. 7902. 2987. 29781. 5326. 6050. 1244. 4494.</_>
    <_>
      54. 96. 30593. 16235. 19189. 15767. 4522. 14510. 8710. 2189.</_>
    <_>
      44. 69. 6053. 12472. 3872. 20248. 12412. 10394. 2204. 2844.</_>
    <_>
      50. 77. 19054. 9234. 17375. 2353. 2850. 2914. 877. 531.</_>
    <_>
      16. 93. 16774433. 16649. 136927. 20935. 5377. 4731. 3559. 1275.</_>
    <_>
      35. 69. 17150. 9847. 17431. 18338. 2879. 4937. 1006. 5268.</_>
    <_>
      57. 87. 15057. 7585. 18657. 11529. 5349. 18500. 1077. 1827.</_>
    <_>
      63. 67. 15665. 10294. 13258. 15666. 5366. 3271. 3945. 2475.</_>
    <_>
      44. 70. 862. 17722. 23553. 20697. 6810. 8301. 2719. 2883.</_>
    <_>
      54. 77. 19190. 2125. 5926. 6928. 4722. 16512. 972. 636.</_>
    <_>
      63. 53. 7713. 16750237. 6635. 21241. 4140. 7637. 1263. 2212.</_>
    <_>
      74. 57. 30289. 22252. 13673. 16757887. 7940. 17659. 1512. 2870.</_>
    <_>
      70. 67. 16776417. 6999. 4438. 13271. 8362. 8879. 620. 1207.</_>
    <_>
      57. 75. 84013. 29624. 2379. 1404. 2391. 3091. 2500. 1288.</_>
    <_>
      70. 38. 10237. 14877. 2433. 30192. 4574. 10711. 719. 1319.</_>
    <_>
      48. 83. 26070. 10254. 16749874. 15789. 7746. 7226. 3113. 1307.</_>
    <_>
      56. 47. 5429. 16336. 1625. 19674. 10592. 12688. 785. 706.</_>
    <_>
      69. 66. 6606. 10472. 17882. 3116. 6833. 4839. 1620. 472.</_>
    <_>
      81. 53. 27540. 26771. 26247. 4770. 7582. 6831. 2126. 663.</_>
    <_>
      77. 40. 205429. 38407. 6548. 3158. 5795. 13113. 497. 808.</_>
    <_>
      44. 61. 8828. 17955. 16745849. 7790. 5508. 7601. 3844. 2283.</_>
    <_>
      51. 43. 29428. 8381. 4718. 15163. 10878. 6135. 1748. 1450.</_>
    <_>
      75. 70. 10472. 16749709. 27625. 15023. 12484. 7425. 2927. 2984.</_>
    <_>
      50. 100. 15283. 7064. 16774550. 5294. 11475. 5723. 3345. 1388.</_>
    <_>
      37. 61. 7409. 13079. 10961. 20148. 7725. 4160. 3946. 1740.</_>
    <_>
      60. 54. 240043. 14494. 18219. 19824. 13127. 10098. 1385. 2094.</_>
    <_>
      56. 43. 11551. 11480. 9543. 4524. 4711. 11625. 1287. 1182.</_>
    <_>
      47. 81. 243858. 3372. 16777113. 138. 364. 370. 87. 22.</_>
    <_>
      21. 80. 9906. 79137. 15264. 16678. 9865. 3110. 3115. 2012.</_>
    <_>
      63. 75. 4556. 26651. 17350. 11015. 17636. 19224. 2387. 411.</_>
    <_>
      69. 70. 870. 9932. 21070. 16698. 6253. 5596. 1841. 1798.</_>
    <_>
      56. 77. 3812. 11597. 13254. 17226. 14023. 8845. 2957. 2968.</_>
    <_>
      47. 70. 16751152. 13452. 3381. 16476. 17205. 7908. 4810. 3897.</_>
    <_>
      51. 78. 16773296. 28446. 15633. 17200. 17837. 13516. 1327. 2457.</_>
    <_>
      87. 51. 10752. 7882. 7391. 11956. 14296. 14120. 4568. 1556.</_>
    <_>
      75. 75. 8495. 19231. 9898. 12778. 10778. 27217. 12990. 4678.</_>
    <_>
      40. 70. 16758970. 32344. 27921. 88099. 9826. 20485. 3784. 2077.</_>
    <_>
      40. 84. 19485. 14349. 3561. 13478. 5745. 8728. 5079. 4204.</_>
    <_>
      69. 87. 16745219. 19507. 32106. 31424. 11626. 9705. 5860. 2281.</_>
    <_>
      47. 67. 16751948. 17289. 16764234. 16241. 8723. 9633. 2816. 1875.</_>
    <_>
      37. 67. 16755698. 19898. 20447. 18045. 6850. 6269. 1284. 1839.</_>
    <_>
      47. 87. 4986. 12291. 15968. 3752. 3296. 5711. 1889. 2575.</_>
    <_>
      64. 53. 18198. 16759498. 5828. 8995. 3557. 10512. 1289. 1149.</_>
    <_>
      35. 100. 87792. 17603. 27600. 10572. 9639. 5543. 1220. 2387.</_>
    <_>
      63. 37. 19780. 13154. 5942. 2911. 4142. 4995. 2952. 1212.</_>
    <_>
      56. 70. 31125. 11222. 75933. 13874. 10474. 13831. 5166. 1529.</_>
    <_>
      57. 80. 4539. 19013. 23105. 14032. 3729. 4075. 3985. 3338.</_>
    <_>
      35. 91. 6833. 11273. 16755660. 23347. 12488. 7053. 2989. 3935.</_>
    <_>
      60. 56. 153196. 49756. 29802. 25238. 14587. 16250. 5277. 5198.</_>
    <_>
      40. 57. 1291566. 313128. 32206. 16766280. 16750965. 19929. 6467.
      8951.</_>
    <_>
      50. 47. 330530. 16759421. 7676. 4409. 4833. 6034. 2167. 1187.</_>
    <_>
      30. 30. 538217. 33566. 13470. 9195. 9193. 6628. 4978. 2493.</_>
    <_>
      43. 48. 25762. 72580. 28633. 16746006. 12568. 12609. 1653. 3748.</_>
    <_>
      26. 27. 39346. 80708. 9152. 21688. 3422. 5975. 1525. 1172.</_>
    <_>
      37. 4. 476394. 225661. 12118. 15044. 16409. 14132. 2236. 1886.</_>
    <_>
      75. 37. 10807. 15040. 23357. 16238. 7497. 19472. 1348. 1236.</_>
    <_>
      17. 37. 223421. 16749831. 6321. 3431. 1048. 1655. 1630. 700.</_>
    <_>
      97. 48. 86533. 16760210. 5267. 19888. 9139. 10814. 4004. 2643.</_>
    <_>
      50. 56. 545166. 159492. 19032. 11897. 27248. 3777. 10852. 6632.</_>
    <_>
      27. 43. 546446. 16745008. 5544. 8817. 3294. 4952. 1072. 459.</_>
    <_>
      1. 17. 67428. 172966. 19501. 16750682. 13409. 6728. 6559. 4544.</_>
    <_>
      56. 50. 161294. 16761167. 3601. 7667. 6508. 9457. 4181. 3119.</_>
    <_>
      56. 64. 23046. 27541. 29201. 3943. 11560. 10984. 4128. 4832.</_>
    <_>
      24. 10. 1035818. 278428. 17511. 14842. 13163. 13454. 5279. 1890.</_>
    <_>
      34. 61. 383166. 59368. 18124. 16746608. 7141. 10469. 11207. 5171.</_>
    <_>
      54. 61. 2032069. 16746918. 16758930. 12856. 4817. 6462. 8522.
      10152.</_>
    <_>
      51. 44. 23181. 16761071. 17620. 5957. 17500. 25016. 10331. 5695.</_>
    <_>
      54. 50. 257955. 41727. 1006. 8204. 1509. 7298. 1393. 2635.</_>
    <_>
      64. 24. 62042. 82415. 25068. 8429. 9954. 21743. 7501. 6460.</_>
    <_>
      51. 26. 212891. 47468. 16756790. 22836. 13996. 14421. 5816. 3570.</_>
    <_>
      61. 57. 624358. 42608. 16756713. 4699. 12435. 16774. 2963. 1837.</_>
    <_>
      29. 50. 456418. 281709. 154769. 16745389. 31762. 18665. 11354.
      5642.</_>
    <_>
      3. 1. 24009. 58947. 6379. 6360. 8500. 15629. 2624. 2405.</_>
    <_>
      40. 20. 48759. 48516. 1593. 7116. 14635. 5289. 5637. 4341.</_>
    <_>
      48. 35. 728079. 117026. 8642. 19687. 8195. 12585. 944. 918.</_>
    <_>
      35. 13. 96900. 26995. 26727. 13111. 9327. 6859. 4165. 1844.</_>
    <_>
      70. 20. 28485. 16774249. 6556. 8815. 16385. 19179. 6843. 12993.</_>
    <_>
      35. 37. 2227680. 64344. 16754197. 16752522. 16751781. 22627. 7711.
      7651.</_>
    <_>
      35. 16. 39845. 26332. 12513. 5763. 7052. 5022. 3190. 2475.</_>
    <_>
      74. 57. 37101. 32974. 33114. 21115. 16771313. 23727. 9523. 7130.</_>
    <_>
      30. 40. 90782. 16766618. 7143. 7136. 1661. 1783. 1574. 1151.</_>
    <_>
      50. 53. 589000. 84007. 10037. 7246. 20112. 7126. 6648. 2799.</_>
    <_>
      50. 57. 12505. 26451. 29818. 11240. 4370. 11720. 5760. 6759.</_>
    <_>
      17. 34. 644551. 168860. 26229. 5411. 19917. 7454. 3854. 2500.</_>
    <_>
      1. 4. 1257545. 1174624. 26358. 16757441. 31076. 5737. 3402. 1826.</_>
    <_>
      30. 24. 225755. 30687. 5382. 6050. 17402. 4769. 644. 4866.</_>
    <_>
      47. 11. 49811. 68652. 7310. 7656. 15531. 4753. 2701. 3548.</_>
    <_>
      47. 40. 114249. 26409. 11580. 8784. 591. 4952. 2749. 1171.</_>
    <_>
      38. 20. 16769229. 16756755. 6916. 8830. 1432. 4849. 1656. 1424.</_>
    <_>
      26. 51. 29814. 9213. 3215. 13467. 4505. 3445. 2139. 778.</_>
    <_>
      69. 40. 498814. 66877. 16744820. 9298. 9924. 10480. 10092. 5229.</_>
    <_>
      16. 40. 91015. 16997. 16754506. 16397. 3068. 4287. 2918. 3510.</_>
    <_>
      61. 43. 25210. 16745416. 2841. 6001. 2490. 1941. 897. 375.</_>
    <_>
      51. 17. 73611. 16754548. 4314. 4797. 5089. 4851. 2095. 2445.</_>
    <_>
      20. 54. 16757771. 20442. 4756. 1447. 1598. 2429. 615. 530.</_>
    <_>
      40. 37. 2661917. 1375907. 90089. 133172. 66980. 16772035. 20904.
      7423.</_>
    <_>
      63. 37. 21482. 16754452. 13006. 8058. 6915. 14654. 12482. 2856.</_>
    <_>
      34. 47. 148975. 23522. 21566. 5776. 7306. 2732. 1826. 1018.</_>
    <_>
      63. 30. 1126502. 35164. 7846. 16776753. 25327. 18281. 26512. 5112.</_>
    <_>
      50. 30. 1151004. 131375. 14071. 6937. 7499. 6440. 3498. 2393.</_>
    <_>
      7. 21. 85609. 16776993. 4841. 1332. 6950. 3357. 750. 1646.</_>
    <_>
      47. 53. 483111. 16763219. 21380. 31772. 5914. 6074. 2245. 3269.</_>
    <_>
      43. 51. 1688542. 37355. 27907. 31122. 13776. 14097. 2478. 5547.</_>
    <_>
      74. 35. 73372. 16770894. 4415. 7884. 12915. 11210. 2514. 2325.</_>
    <_>
      41. 21. 25779. 78373. 9783. 16667. 10445. 6361. 4858. 4393.</_>
    <_>
      38. 11. 207775. 85353. 19333. 8877. 7883. 14173. 11133. 6826.</_>
    <_>
      51. 53. 74732. 62958. 20432. 15213. 9067. 10792. 4734. 5040.</_>
    <_>
      50. 40. 682930. 395013. 29095. 27738. 16747363. 14330. 14681.
      5814.</_>
    <_>
      51. 41. 25702. 32477. 13844. 8336. 6669. 9284. 4251. 3528.</_>
    <_>
      48. 13. 16747760. 16771202. 17512. 9028. 7012. 5308. 1992. 1894.</_>
    <_>
      37. 50. 106565. 16767346. 14487. 28471. 6238. 4414. 3435. 3783.</_>
    <_>
      50. 44. 16754049. 16747609. 16755706. 16758195. 11473. 11607.
      3785. 3153.</_>
    <_>
      37. 34. 85735. 16768626. 26061. 23566. 8855. 19887. 10326. 4196.</_>
    <_>
      50. 20. 16770227. 27373. 2434. 1435. 2166. 2405. 2760. 1547.</_>
    <_>
      54. 54. 1115474. 43519. 9208. 16748468. 9137. 7361. 1377. 1365.</_>
    <_>
      29. 27. 95669. 32385. 3523. 3932. 2423. 2175. 1859. 1865.</_>
    <_>
      13. 41. 409867. 208975. 16749350. 21924. 16745993. 15266. 5037.
      5209.</_>
    <_>
      38. 41. 303817. 16759414. 8908. 26168. 12742. 12155. 10246. 9613.</_>
    <_>
      35. 35. 153181. 28364. 28596. 15287. 17286. 4630. 3102. 2696.</_>
    <_>
      50. 11. 189866. 62545. 19797. 19192. 8165. 18482. 8836. 1978.</_>
    <_>
      64. 61. 58923. 5145. 6052. 6206. 2944. 6360. 731. 1242.</_>
    <_>
      29. 47. 604164. 68282. 16525. 13635. 16750673. 6534. 4041. 2660.</_>
    <_>
      41. 40. 10495. 16757767. 9397. 7358. 4957. 10050. 2800. 1184.</_>
    <_>
      27. 38. 250767. 16758300. 24904. 4504. 5417. 6631. 2866. 1192.</_>
    <_>
      51. 60. 91043. 16749892. 6036. 7525. 7071. 3043. 1105. 744.</_>
    <_>
      11. 30. 327265. 73078. 12737. 2895. 3133. 2080. 613. 797.</_>
    <_>
      48. 27. 417269. 30772. 2038. 4354. 17257. 13153. 6616. 2716.</_>
    <_>
      17. 14. 67074. 124589. 13670. 11520. 5678. 6519. 2766. 1458.</_>
    <_>
      44. 43. 16774244. 73178. 1180. 6865. 5668. 4400. 1334. 2743.</_>
    <_>
      10. 7. 25663. 25875. 1805. 7341. 9564. 7285. 3774. 2547.</_>
    <_>
      29. 30. 14362. 16756957. 7450. 6873. 5252. 5755. 1334. 1412.</_>
    <_>
      75. 40. 74426. 34068. 27831. 11867. 15094. 26958. 8376. 5130.</_>
    <_>
      30. 47. 29117. 20352. 28706. 19190. 7401. 11064. 5325. 3238.</_>
    <_>
      17. 11. 1262697. 162920. 16772367. 20486. 5367. 10804. 2756. 2886.</_>
    <_>
      40. 40. 167279. 46629. 31959. 16748023. 9182. 16790. 3228. 3458.</_>
    <_>
      34. 64. 16751618. 16749076. 16750940. 18235. 17949. 14077. 10132.
      6722.</_>
    <_>
      69. 37. 16775016. 7069. 4458. 2345. 1731. 977. 716. 708.</_>
    <_>
      61. 66. 54195. 16746994. 10775. 10288. 24938. 10644. 4187. 2400.</_>
    <_>
      29. 29. 84259. 16765333. 26455. 4420. 13490. 7154. 3759. 5950.</_>
    <_>
      87. 34. 40859. 67178. 6198. 24882. 16750796. 28225. 7418. 8074.</_>
    <_>
      44. 50. 199342. 75712. 69881. 31649. 12539. 10100. 4870. 5917.</_>
    <_>
      60. 51. 326915. 130054. 27758. 75562. 9571. 16752462. 10445. 7922.</_>
    <_>
      27. 47. 21746. 131406. 67007. 3547. 8586. 11683. 7693. 4102.</_>
    <_>
      56. 64. 21783. 5191. 3974. 2621. 1605. 2894. 4397. 678.</_>
    <_>
      41. 61. 107404. 31088. 15858. 16745075. 27450. 13010. 8969. 4942.</_>
    <_>
      43. 47. 84580. 16776223. 30890. 22124. 9616. 9478. 4879. 6108.</_>
    <_>
      44. 29. 93878. 35108. 4398. 978. 1824. 3143. 3829. 2822.</_>
    <_>
      57. 50. 80423. 10601. 2789. 4443. 6721. 2757. 1049. 1166.</_>
    <_>
      56. 44. 90305. 12566. 1915. 2533. 780. 1653. 1181. 1572.</_>
    <_>
      53. 23. 239586. 55567. 18538. 11971. 12242. 11583. 1637. 3314.</_>
    <_>
      56. 40. 90452. 16764695. 7129. 13691. 4664. 10447. 4746. 2684.</_>
    <_>
      41. 54. 566587. 92461. 8949. 16895. 11150. 10089. 3907. 4542.</_>
    <_>
      54. 44. 10365. 16765190. 9544. 7219. 6253. 6474. 3338. 1252.</_>
    <_>
      43. 50. 13653. 23602. 15714. 8820. 3762. 5816. 3860. 1838.</_>
    <_>
      41. 40. 562149. 8638. 2538. 2260. 5805. 3384. 2111. 1177.</_>
    <_>
      50. 57. 16754241. 16746102. 15392. 12335. 7515. 14914. 2729. 3973.</_>
    <_>
      24. 23. 140406. 92436. 25527. 9960. 7290. 3712. 3426. 4703.</_>
    <_>
      23. 40. 563663. 16763005. 27936. 15075. 8765. 5099. 3187. 1424.</_>
    <_>
      35. 29. 238154. 285013. 16754680. 20530. 18550. 21855. 5491. 3360.</_>
    <_>
      48. 57. 636562. 16764218. 8214. 15666. 5241. 7515. 1856. 1253.</_>
    <_>
      26. 44. 21610. 66682. 7023. 9538. 15651. 9370. 5030. 2473.</_>
    <_>
      3. 43. 262781. 61343. 16748105. 17989. 13714. 6920. 11718. 6578.</_>
    <_>
      54. 40. 16757980. 16754113. 4362. 15515. 8091. 5675. 3189. 5026.</_>
    <_>
      48. 44. 16750139. 21400. 9580. 1578. 2894. 5637. 1482. 353.</_>
    <_>
      44. 53. 20674. 18534. 12595. 5845. 22083. 5053. 6551. 2533.</_>
    <_>
      24. 53. 71447. 29951. 2414. 21154. 14999. 10799. 3397. 5952.</_>
    <_>
      44. 14. 25684. 87424. 7251. 5456. 13181. 11572. 9014. 5315.</_>
    <_>
      30. 29. 462352. 323175. 2146. 13019. 9822. 3908. 3230. 989.</_>
    <_>
      37. 43. 202349. 6275. 1319. 1661. 1263. 1060. 239. 212.</_>
    <_>
      84. 41. 7897. 11354. 2678. 8297. 3096. 6509. 8670. 1770.</_>
    <_>
      44. 64. 46945. 30991. 1419. 6092. 2049. 2138. 1259. 404.</_>
    <_>
      24. 21. 16775309. 71390. 5440. 1195. 5464. 972. 1326. 956.</_>
    <_>
      54. 38. 946282. 269594. 78209. 16859. 20936. 16747846. 12951.
      4730.</_>
    <_>
      56. 38. 86328. 19611. 4564. 698. 723. 6253. 1061. 915.</_>
    <_>
      67. 56. 140062. 16765256. 25275. 10724. 28042. 21322. 2297. 2229.</_>
    <_>
      41. 17. 976938. 45283. 23568. 19967. 8411. 10598. 3499. 2071.</_>
    <_>
      17. 17. 91676. 13835. 1550. 4079. 3564. 3266. 837. 956.</_>
    <_>
      56. 48. 16773850. 62089. 22461. 5786. 10633. 25174. 10329. 8050.</_>
    <_>
      50. 37. 945692. 30074. 28309. 11298. 2428. 23614. 2114. 2846.</_>
    <_>
      1. 1. 17127. 117137. 9660. 7195. 5349. 3041. 4333. 903.</_>
    <_>
      41. 34. 2187420. 58059. 19370. 16744715. 14441. 21071. 11104. 690.</_>
    <_>
      44. 41. 16746732. 10576. 3987. 3744. 7067. 8040. 3424. 1887.</_>
    <_>
      37. 21. 122775. 80996. 2320. 3042. 2429. 2526. 1046. 132.</_>
    <_>
      70. 50. 41809. 152391. 16748282. 30746. 20066. 21561. 8755. 4310.</_>
    <_>
      50. 57. 56009. 86071. 12470. 10193. 19155. 5223. 8884. 5647.</_>
    <_>
      75. 61. 326792. 16759087. 9538. 15285. 5562. 11613. 1022. 459.</_>
    <_>
      37. 30. 25361. 17972. 2574. 3417. 1282. 1714. 812. 1014.</_>
    <_>
      44. 35. 268610. 27937. 11653. 2937. 5936. 4369. 4171. 1620.</_>
    <_>
      51. 21. 16760391. 162829. 21133. 11646. 13162. 3121. 983. 2539.</_>
    <_>
      38. 1. 70054. 16772327. 30047. 7965. 5346. 7427. 8902. 1594.</_>
    <_>
      53. 44. 7797. 6825. 2419. 3058. 1938. 2491. 1342. 1160.</_>
    <_>
      43. 30. 1145061. 16769656. 6423. 19414. 5402. 8789. 2555. 1602.</_>
    <_>
      50. 17. 118808. 163445. 16760492. 13563. 29861. 17226. 5573. 9481.</_>
    <_>
      47. 60. 5340. 2205. 4051. 3024. 5990. 1725. 815. 1898.</_>
    <_>
      50. 47. 196920. 16758882. 6432. 18872. 9693. 6434. 7749. 1930.</_>
    <_>
      48. 41. 16763210. 16748945. 15929. 11795. 23596. 8023. 7312. 9165.</_>
    <_>
      11. 13. 153335. 266908. 16757854. 7067. 23220. 8046. 4666. 1736.</_>
    <_>
      20. 20. 625557. 136808. 30465. 18778. 17979. 21650. 4329. 6413.</_>
    <_>
      50. 60. 134650. 11887. 11220. 194. 2926. 4366. 1709. 814.</_>
    <_>
      78. 54. 576429. 17021. 14435. 6504. 9174. 13451. 2256. 2031.</_>
    <_>
      40. 30. 12918. 350298. 29251. 9483. 7980. 4997. 4147. 3984.</_>
    <_>
      10. 24. 14479. 36511. 6833. 4422. 5672. 6304. 2542. 2225.</_>
    <_>
      21. 40. 125025. 407069. 8156. 15083. 16842. 23934. 13482. 9200.</_>
    <_>
      74. 63. 119105. 65558. 16757864. 7180. 15202. 14304. 3191. 1217.</_>
    <_>
      48. 50. 552299. 29972. 17396. 9375. 4322. 9696. 4698. 6505.</_>
    <_>
      34. 44. 130332. 16775008. 13130. 16892. 10763. 10076. 3195. 4080.</_>
    <_>
      44. 23. 16747284. 60101. 13470. 14657. 9669. 7496. 10676. 8812.</_>
    <_>
      66. 66. 160260. 19807. 7121. 825. 1584. 2746. 1858. 771.</_>
    <_>
      30. 37. 16749143. 16766739. 4748. 19195. 17019. 5389. 3277. 3960.</_>
    <_>
      26. 43. 94490. 16767734. 24399. 19830. 9731. 14871. 24796. 21764.</_>
    <_>
      57. 53. 16751898. 16752852. 29121. 5166. 10818. 10985. 11839.
      1428.</_>
    <_>
      69. 61. 61121. 81576. 24612. 19217. 7648. 24270. 16758484. 10775.</_>
    <_>
      70. 50. 19949. 9649. 5757. 3321. 4463. 3078. 1031. 1313.</_>
    <_>
      1. 1. 77968. 133778. 25651. 2310. 4161. 6844. 6843. 3668.</_>
    <_>
      17. 44. 16766795. 16768004. 17200. 7643. 5466. 4023. 6340. 5188.</_>
    <_>
      41. 38. 16752441. 14110. 6394. 703. 1856. 3883. 871. 1112.</_>
    <_>
      26. 47. 117383. 72760. 23784. 7139. 4378. 3336. 2230. 711.</_>
    <_>
      17. 17. 267836. 97813. 11874. 13420. 4788. 10827. 6803. 8598.</_>
    <_>
      35. 34. 366486. 196675. 10445. 4555. 14953. 15518. 2972. 4380.</_>
    <_>
      35. 30. 282601. 228686. 12075. 22021. 12041. 15167. 10100. 7146.</_>
    <_>
      27. 16. 16758165. 16764994. 18418. 19469. 3852. 9198. 3130. 3150.</_>
    <_>
      48. 54. 95230. 11816. 1540. 5702. 4953. 1817. 559. 1583.</_>
    <_>
      53. 60. 280528. 47381. 93177. 152004. 16754803. 16759710. 17592.
      7704.</_>
    <_>
      23. 14. 1728344. 34170. 17519. 12182. 21285. 11743. 3815. 1768.</_>
    <_>
      54. 21. 507907. 103248. 16749647. 21769. 22710. 23000. 7593.
      11135.</_>
    <_>
      61. 40. 13863. 101826. 880. 8033. 8368. 9537. 3863. 10570.</_>
    <_>
      51. 63. 23803. 25799. 5719. 16265. 13226. 8857. 2429. 2517.</_>
    <_>
      66. 26. 339902. 111805. 17165. 11047. 4889. 9598. 8516. 8669.</_>
    <_>
      37. 11. 680291. 62344. 3999. 12769. 24637. 32279. 24466. 7897.</_>
    <_>
      44. 41. 16756471. 26575. 2854. 4424. 2731. 2663. 1219. 1561.</_>
    <_>
      48. 50. 109233. 16751798. 2552. 5991. 4847. 4332. 885. 2760.</_>
    <_>
      11. 11. 21672. 29920. 16777165. 1710. 4424. 3260. 5057. 2466.</_>
    <_>
      67. 30. 22371. 19941. 2671. 8422. 9680. 15028. 7319. 9822.</_>
    <_>
      38. 47. 23453. 67928. 16771130. 11878. 28809. 9413. 5875. 4324.</_>
    <_>
      61. 53. 1293075. 191697. 31581. 16744664. 27183. 14476. 8486.
      5687.</_>
    <_>
      27. 44. 550434. 465406. 20290. 24830. 5022. 3725. 3799. 8024.</_>
    <_>
      60. 53. 277838. 103325. 17258. 9350. 5191. 13572. 7727. 3833.</_>
    <_>
      38. 43. 30687. 80796. 12261. 10662. 7429. 4980. 2179. 3995.</_>
    <_>
      41. 34. 17565. 25556. 16746352. 12171. 24089. 7559. 5897. 4781.</_>
    <_>
      60. 66. 1977193. 71163. 16884. 20065. 7848. 4880. 2132. 1123.</_>
    <_>
      50. 70. 58224. 16746247. 6606. 5342. 2987. 4066. 482. 418.</_>
    <_>
      53. 44. 725118. 31549. 7771. 17697. 5656. 3949. 1657. 1227.</_>
    <_>
      20. 29. 333662. 162584. 16746521. 17677. 6064. 3099. 2599. 1574.</_>
    <_>
      37. 13. 297724. 19017. 7651. 12663. 5979. 4692. 2696. 1000.</_>
    <_>
      50. 44. 16756819. 28754. 18181. 24626. 12432. 14836. 3290. 7105.</_>
    <_>
      44. 20. 63731. 164974. 16771276. 16757346. 19555. 25555. 9586.
      6144.</_>
    <_>
      60. 20. 24850. 16773974. 550. 1683. 10899. 13876. 6321. 4814.</_>
    <_>
      26. 40. 695503. 258341. 30368. 15148. 8691. 13072. 7651. 5809.</_>
    <_>
      17. 10. 219139. 157758. 6999. 15215. 14308. 8313. 1181. 1361.</_>
    <_>
      44. 40. 16748083. 16760114. 11976. 16729. 9071. 17080. 18405.
      3608.</_>
    <_>
      27. 1. 504120. 51027. 11721. 2930. 8081. 4444. 5889. 1476.</_>
    <_>
      17. 26. 266973. 67391. 3783. 2971. 4153. 1258. 1865. 705.</_>
    <_>
      53. 23. 11895. 21851. 13224. 8535. 13709. 8698. 6786. 1344.</_>
    <_>
      60. 54. 40772. 16759491. 21588. 9561. 10288. 9854. 1048. 654.</_>
    <_>
      66. 40. 16614. 16751193. 2584. 5291. 12031. 13437. 4895. 1056.</_>
    <_>
      40. 34. 102344. 84402. 7917. 5236. 19787. 8563. 10674. 6703.</_>
    <_>
      41. 23. 155213. 28973. 3026. 205. 911. 721. 896. 16777124.</_>
    <_>
      47. 21. 16752914. 83139. 18821. 12942. 7178. 11676. 6564. 7472.</_>
    <_>
      41. 29. 438483. 16768255. 26367. 5260. 14216. 18875. 16745198.
      9840.</_>
    <_>
      60. 41. 39267. 16765851. 8453. 21749. 12084. 4925. 3310. 2765.</_>
    <_>
      37. 48. 1025427. 218726. 16763437. 15830. 11103. 12282. 3459.
      9342.</_>
    <_>
      54. 20. 169218. 18607. 4891. 717. 8394. 2377. 1231. 2097.</_>
    <_>
      38. 27. 150357. 72223. 16755051. 69819. 24408. 12824. 3939. 4780.</_>
    <_>
      56. 61. 17391. 30314. 16774530. 10080. 20766. 19800. 2942. 3299.</_>
    <_>
      37. 37. 290273. 344967. 16750185. 16749157. 16045. 15713. 5430.
      6142.</_>
    <_>
      67. 48. 22565. 15818. 994. 3436. 2972. 4073. 3426. 3287.</_>
    <_>
      77. 40. 1527472. 16753611. 26199. 10067. 13656. 7464. 6319. 2314.</_>
    <_>
      50. 43. 666379. 107859. 17148. 25883. 4930. 25021. 4528. 6655.</_>
    <_>
      40. 14. 238131. 91941. 13338. 17629. 9881. 11713. 8098. 3885.</_>
    <_>
      44. 38. 1139646. 59930. 24493. 5027. 21083. 11387. 16746. 6862.</_>
    <_>
      30. 43. 9567. 16758675. 22695. 4123. 4257. 4486. 1392. 1225.</_>
    <_>
      43. 40. 163359. 16752400. 3213. 2145. 4191. 1653. 2118. 961.</_>
    <_>
      53. 44. 18998. 7691. 14843. 3145. 15183. 16276. 6174. 8424.</_>
    <_>
      43. 43. 161834. 42418. 8563. 19259. 24596. 17950. 2655. 1843.</_>
    <_>
      51. 44. 14357. 16749439. 3133. 1241. 2078. 2573. 662. 1127.</_>
    <_>
      47. 50. 1030229. 385463. 16776574. 16771754. 16762397. 29282.
      13345. 7156.</_>
    <_>
      16. 10. 91025. 17268. 1954. 2659. 3495. 3763. 3925. 801.</_>
    <_>
      20. 47. 716564. 16754616. 2660. 15552. 15663. 18890. 7170. 6096.</_>
    <_>
      14. 40. 2984673. 327918. 9944. 26685. 16744613. 12735. 4318. 2679.</_>
    <_>
      78. 40. 76355. 16747059. 16236. 3704. 13083. 9950. 2545. 2767.</_>
    <_>
      21. 29. 678704. 262094. 16755984. 16751718. 16746318. 14499. 3978.
      12186.</_>
    <_>
      53. 47. 23655. 27552. 16758012. 1969. 4234. 10838. 4071. 1914.</_>
    <_>
      57. 44. 16746195. 16751179. 5473. 9870. 5011. 7520. 3699. 1018.</_>
    <_>
      84. 38. 16773734. 27142. 3912. 14208. 13305. 17892. 5498. 10251.</_>
    <_>
      57. 51. 15303. 3111. 2624. 2745. 6790. 2587. 1304. 1195.</_>
    <_>
      70. 54. 12816. 11854. 5157. 8196. 12343. 8138. 4247. 5086.</_>
    <_>
      70. 38. 659582. 16755229. 16747555. 16753180. 31134. 8821. 5927.
      4072.</_>
    <_>
      50. 44. 75516. 16755715. 9087. 2523. 1725. 4951. 1886. 1454.</_>
    <_>
      23. 38. 686190. 60665. 22111. 10201. 2716. 2699. 1153. 2708.</_>
    <_>
      47. 57. 609942. 16755868. 5517. 10474. 2596. 2818. 1518. 697.</_>
    <_>
      51. 60. 29750. 19476. 3354. 21357. 7253. 4952. 2692. 3260.</_>
    <_>
      53. 53. 67904. 24510. 407. 1495. 1539. 1678. 229. 259.</_>
    <_>
      61. 60. 23822. 16748171. 13292. 10022. 4019. 8895. 7257. 5221.</_>
    <_>
