<?xml version="1.0"?>
<opencv_storage>
<randomForest type_id="opencv-ml-bayesian">
  <var_count>10</var_count>
  <var_all>10</var_all>
  <cls_labels type_id="opencv-matrix">
    <rows>1</rows>
    <cols>2</cols>
    <dt>i</dt>
    <data>
      0 1</data></cls_labels>
  <count>
    <_ type_id="opencv-matrix">
      <rows>1</rows>
      <cols>10</cols>
      <dt>i</dt>
      <data>
        617534 617534 617534 617534 617534 617534 617534 617534 617534
        617534</data></_>
    <_ type_id="opencv-matrix">
      <rows>1</rows>
      <cols>10</cols>
      <dt>i</dt>
      <data>
        385848 385848 385848 385848 385848 385848 385848 385848 385848
        385848</data></_></count>
  <sum>
    <_ type_id="opencv-matrix">
      <rows>1</rows>
      <cols>10</cols>
      <dt>d</dt>
      <data>
        32318652. 40154648. 1.4958186744780000e+12
        1.7726548233830000e+12 1.7991442948080000e+12
        9.3537325021800000e+11 2.2918955294300000e+11
        2.3460191671500000e+11 9.4832024133000000e+10
        1.9888586888400000e+11</data></_>
    <_ type_id="opencv-matrix">
      <rows>1</rows>
      <cols>10</cols>
      <dt>d</dt>
      <data>
        16333352. 14420667. 1.1331575351220000e+12
        1.5753961273350000e+12 7.9793466624000000e+11
        4.9103242793100000e+11 2.5738078127200000e+11
        1.0729741536800000e+11 6.1793064500000000e+10
        8.2883845817000000e+10</data></_></sum>
  <productsum>
    <_ type_id="opencv-matrix">
      <rows>10</rows>
      <cols>10</cols>
      <dt>d</dt>
      <data>
        1896120808. 2083380630. 7.6003912435664000e+13
        8.5139402427904000e+13 8.7399904836978000e+13
        4.4701164109280000e+13 1.1980756006558000e+13
        1.3712044118104000e+13 4.2351876987420000e+12
        1.0114411762360000e+13 2083380630. 2.8419466220000000e+09
        9.9293273451527000e+13 1.0769578680317200e+14
        1.2618297439960000e+14 6.5643013934972000e+13
        1.3141980204599000e+13 1.3206955147074000e+13
        4.3103450778030000e+12 1.0933606196521000e+13
        7.6003912435664000e+13 9.9293273451527000e+13
        2.3704411656649863e+19 5.2592349946167695e+18
        4.0005678605633761e+18 2.1623719964772493e+18
        2.3920512976708390e+17 3.7925718817402976e+17
        2.6708287865301341e+17 5.6153929699640550e+17
        8.5139402427904000e+13 1.0769578680317200e+14
        5.2592349946167695e+18 2.9417394944619565e+19
        6.4126511753607711e+18 2.8250138184610616e+18
        4.3595577064888154e+17 3.4847713846556634e+17
        2.1564961317009936e+16 3.7154844647201734e+17
        8.7399904836978000e+13 1.2618297439960000e+14
        4.0005678605633761e+18 6.4126511753607711e+18
        2.9986820045444145e+19 4.5041806493214725e+18
        1.3333697953523233e+18 7.3778748634747738e+17
        9.6855338912385240e+15 6.8125895199543720e+15
        4.4701164109280000e+13 6.5643013934972000e+13
        2.1623719964772493e+18 2.8250138184610616e+18
        4.5041806493214725e+18 1.5545575479288259e+19
        1.0811191366833660e+18 1.1176893318760916e+18
        8.8034460850116704e+16 4.4981217830653168e+16
        1.1980756006558000e+13 1.3141980204599000e+13
        2.3920512976708390e+17 4.3595577064888154e+17
        1.3333697953523233e+18 1.0811191366833660e+18
        3.7434271691431608e+18 8.3653372856252954e+17
        1.5684320329424413e+17 1.1771173437988898e+17
        1.3712044118104000e+13 1.3206955147074000e+13
        3.7925718817402976e+17 3.4847713846556634e+17
        7.3778748634747738e+17 1.1176893318760916e+18
        8.3653372856252954e+17 3.8295021678277473e+18
        1.6029651050437120e+17 1.1807887943911314e+17
        4.2351876987420000e+12 4.3103450778030000e+12
        2.6708287865301341e+17 2.1564961317009936e+16
        9.6855338912385240e+15 8.8034460850116704e+16
        1.5684320329424413e+17 1.6029651050437120e+17
        1.5597443385909760e+18 8.1217018645008691e+17
        1.0114411762360000e+13 1.0933606196521000e+13
        5.6153929699640550e+17 3.7154844647201734e+17
        6.8125895199543720e+15 4.4981217830653168e+16
        1.1771173437988898e+17 1.1807887943911314e+17
        8.1217018645008691e+17 3.3136333194957681e+18</data></_>
    <_ type_id="opencv-matrix">
      <rows>10</rows>
      <cols>10</cols>
      <dt>d</dt>
      <data>
        820416086. 655025349. 5.1300126952932000e+13
        6.8812975905913000e+13 3.2214752254771000e+13
        1.8700496038153000e+13 1.0475419166763000e+13
        5.2942785749880000e+12 2.6509544571000000e+12
        3.4170449417730000e+12 655025349. 635266279.
        4.3545374342579000e+13 6.1752253148784000e+13
        3.1106328619181000e+13 1.9206963200076000e+13
        9.2960450681770000e+12 4.0237032978150000e+12
        2.7565178156570000e+12 3.3015204910340000e+12
        5.1300126952932000e+13 4.3545374342579000e+13
        1.7328020800002392e+19 6.6763139032872776e+18
        1.9116367295876227e+18 9.3943380454097549e+17
        2.2098318478695453e+17 1.3605631186636685e+17
        1.0482507388946016e+17 3.5076458398451168e+17
        6.8812975905913000e+13 6.1752253148784000e+13
        6.6763139032872776e+18 2.5924312699720696e+19
        2.0551612231581875e+18 1.2017836030066767e+18
        2.1888894420573277e+17 4.8348795709646208e+16
        7.2309693076205792e+16 1.6186218086446912e+17
        3.2214752254771000e+13 3.1106328619181000e+13
        1.9116367295876227e+18 2.0551612231581875e+18
        1.3284813356073984e+19 2.5158862994533719e+18
        1.4810621189868362e+18 4.1121407528831162e+17
        7.3980738040899200e+15 6.6748725598659710e+15
        1.8700496038153000e+13 1.9206963200076000e+13
        9.3943380454097549e+17 1.2017836030066767e+18
        2.5158862994533719e+18 8.1599715764716370e+18
        1.7883876388681324e+18 5.3882937009113958e+17
        5.6080523286643330e+15 4.1914799957766760e+15
        1.0475419166763000e+13 9.2960450681770000e+12
        2.2098318478695453e+17 2.1888894420573277e+17
        1.4810621189868362e+18 1.7883876388681324e+18
        4.2491191542046633e+18 5.2859142613166093e+17
        1.3294885822273131e+17 1.2433571249271904e+17
        5.2942785749880000e+12 4.0237032978150000e+12
        1.3605631186636685e+17 4.8348795709646208e+16
        4.1121407528831162e+17 5.3882937009113958e+17
        5.2859142613166093e+17 1.7401360324480868e+18
        2.2968756435893800e+15 2.1695319780548180e+15
        2.6509544571000000e+12 2.7565178156570000e+12
        1.0482507388946016e+17 7.2309693076205792e+16
        7.3980738040899200e+15 5.6080523286643330e+15
        1.3294885822273131e+17 2.2968756435893800e+15
        1.0024209024285375e+18 5.7279773476138502e+17
        3.4170449417730000e+12 3.3015204910340000e+12
        3.5076458398451168e+17 1.6186218086446912e+17
        6.6748725598659710e+15 4.1914799957766760e+15
        1.2433571249271904e+17 2.1695319780548180e+15
        5.7279773476138502e+17 1.3665370481362796e+18</data></_></productsum>
  <avg>
    <_ type_id="opencv-matrix">
      <rows>1</rows>
      <cols>10</cols>
      <dt>d</dt>
      <data>
        5.2335016371568209e+01 6.5024189761211531e+01
        2.4222450496296561e+06 2.8705380163408006e+06
        2.9134335839127884e+06 1.5146910942846872e+06
        3.7113673569876316e+05 3.7990121469425166e+05
        1.5356567271275751e+05 3.2206464564542193e+05</data></_>
    <_ type_id="opencv-matrix">
      <rows>1</rows>
      <cols>10</cols>
      <dt>d</dt>
      <data>
        4.2331052642491343e+01 3.7373958138956276e+01
        2.9367977419139142e+06 4.0829449092259128e+06
        2.0680025974995336e+06 1.2726058653433477e+06
        6.6705226221724611e+05 2.7808208249880781e+05
        1.6014872307229790e+05 2.1480957739057866e+05</data></_></avg>
  <inv_eigen_values>
    <_ type_id="opencv-matrix">
      <rows>1</rows>
      <cols>10</cols>
      <dt>d</dt>
      <data>
        2.3722607645157907e-14 2.6066277893941966e-14
        3.1195619261874055e-14 4.4309376079737140e-14
        1.4196901056190859e-13 1.7639547584990715e-13
        2.1015795730019931e-13 5.0050384078319237e-13
        2.7078190729011857e-03 3.2696695168347896e-03</data></_>
    <_ type_id="opencv-matrix">
      <rows>1</rows>
      <cols>10</cols>
      <dt>d</dt>
      <data>
        1.8759252068933508e-14 2.8903107689851078e-14
        3.2095190681783392e-14 5.2450117564006023e-14
        1.0849174321424371e-13 2.2029202649290916e-13
        2.4046497367835623e-13 6.6301654669041025e-13
        2.4383304602128195e-03 6.0340401272053635e-03</data></_></inv_eigen_values>
  <cov_rotate_mats>
    <_ type_id="opencv-matrix">
      <rows>10</rows>
      <cols>10</cols>
      <dt>d</dt>
      <data>
        -4.0565879690076254e-07 1.2595362517912839e-07
        4.8926234439517706e-02 6.1203817554159556e-01
        7.7849205774608399e-01 1.2486024352293823e-01
        2.0269637597063465e-02 -2.6278588040220627e-03
        -1.5713788417576962e-02 -2.6661655614793302e-02
        8.2172459326470175e-08 4.6470884437876955e-07
        -2.6745157971607514e-01 -7.5279771437426346e-01
        5.9028919417564274e-01 1.0656670781230344e-01
        3.6872860201193083e-02 2.1838518219492946e-02
        6.1710925351546233e-04 -1.1425771058654713e-02
        -6.4921194214978092e-08 2.5401152533688756e-07
        9.6202651533670536e-01 -2.4086062156686081e-01
        1.2703878080943676e-01 1.4163868521147305e-02
        -9.8725954548601717e-03 -5.7745788118630809e-03
        3.4046012027509074e-03 3.0450871285766581e-03
        -2.1685856241548922e-07 2.0818799693435466e-07
        1.1141766644043937e-02 9.3217715250285254e-03
        -1.6721510187574173e-01 9.8063603701486368e-01
        6.4170718671128904e-02 7.6575762005577669e-02
        -4.5008211209583303e-04 -1.4110534669219577e-02
        2.6885913135484657e-07 -8.8384377780739222e-07
        1.8697590784448027e-02 2.2309338153816284e-02
        -1.0393022679815549e-02 -9.9291563619293796e-02
        6.6889222178883723e-01 7.1196518654552998e-01
        1.0484141669655839e-01 1.5454096584852692e-01
        -3.2320817956753474e-07 -4.6502856871187552e-07
        -8.4323332442837132e-03 7.9440935936528154e-03
        2.8928729782845969e-02 3.6685095777422905e-02
        -9.8984393313030009e-02 -1.5195320706527651e-01
        3.4550852335512289e-01 9.1946685231478331e-01
        -2.8163149538525259e-07 5.4428390599717966e-09
        5.8288497708191399e-03 -2.1389796515507860e-03
        -2.1406540865895010e-02 1.0917569615072676e-03
        7.3199899915538580e-01 -6.8023922735087883e-01
        -8.7808565906371087e-03 -2.9613725151378952e-02
        5.4843560785199095e-07 7.4882651802060935e-07
        1.4287341778981620e-03 -6.2247924147939828e-03
        -2.4320406178873813e-03 -3.6305754338690869e-05
        3.1255966512058905e-02 3.0155761891949167e-02
        -9.3236041118056134e-01 3.5884683749872043e-01
        4.8949355325867039e-01 -8.7200691586522550e-01
        1.5092779614716476e-07 -1.6913994802772459e-07
        4.3785180044740104e-07 4.4377573020586044e-07
        -4.2700293831226575e-07 -6.6252437386849201e-07
        -5.4370222513363396e-07 -2.4874795529833326e-07
        8.7200691586559220e-01 4.8949355325818089e-01
        2.9729153963818426e-08 4.3428140773547158e-07
        3.7162329800386500e-08 8.8447757529653015e-08
        2.3470522375812977e-07 -1.2726281780708080e-07
        9.7727127047200733e-07 1.8291883140453875e-07</data></_>
    <_ type_id="opencv-matrix">
      <rows>10</rows>
      <cols>10</cols>
      <dt>d</dt>
      <data>
        1.6954065102899150e-07 1.3425510949590847e-07
        3.1428600297460124e-01 9.2627385577352439e-01
        -1.6468374165360899e-01 -9.7421124709061419e-02
        -7.5869264532020753e-02 -2.7684746171554194e-02
        -8.8576356341301208e-03 -5.3285982958814647e-03
        -1.9880857971402119e-07 3.1320535119254972e-10
        -9.3343030771251567e-01 3.4104826263074783e-01
        7.8249142617131673e-02 6.5105825500072712e-02
        4.1793677962507499e-02 8.1309814638873216e-03
        -6.9432772420737713e-04 -1.4796617778288812e-02
        -1.0401252493454860e-07 1.6735485792329976e-07
        1.6063813904155388e-01 1.5244507139074107e-01
        9.1354394800221250e-01 3.0893453145267702e-01
        1.4032367471542023e-01 2.6551467339477549e-02
        -1.5397590555669039e-02 -1.7888514195064667e-02
        -1.4711013959759178e-07 5.0365788905287686e-08
        5.7352832197219990e-02 3.4591818755961797e-02
        -3.6016098329438301e-01 8.8424551196904289e-01
        2.8119868014828431e-01 6.9490737717833914e-02
        -1.3018553360737008e-03 -2.1550443369638787e-03
        1.7365559527301496e-07 -1.3510374676782364e-07
        2.6367278250570021e-02 3.0076676174768401e-02
        -4.3806443364727055e-02 -3.2715408103034038e-01
        9.2865298225019022e-01 1.4410870476226881e-01
        5.3613072760201226e-02 5.8423635384934516e-02
        -2.3262086307152233e-07 2.7908805572936295e-07
        -7.6949203652516233e-03 9.8201601537556051e-03
        2.1680656137241072e-02 4.1513735684261234e-02
        -1.5625580400690030e-02 -3.1700687689036594e-01
        5.5894095284399781e-01 7.6452495317628000e-01
        -5.0718275435750360e-07 -1.5603480702875089e-07
        -1.8847658669415366e-03 -1.6266836972240652e-02
        -9.3769193360445872e-03 1.3469293276273492e-02
        1.7606366386517877e-01 -9.3399805788703771e-01
        -1.7780362505729011e-01 -2.5396372623027141e-01
        -1.9884710494324487e-07 -4.4876894195319512e-07
        -8.9561374483067713e-03 -1.0396973330606023e-03
        -9.3602806456384439e-04 -2.2540936926416857e-03
        9.7353911211154904e-03 -4.5219467370372825e-03
        -8.0794727560465507e-01 5.8908295132752786e-01
        8.1748505478259048e-01 5.7594981136084000e-01
        -2.2262710246008977e-07 -1.5349501700975951e-07
        3.3425981899685713e-09 1.3683848634786260e-07
        8.0121679009781597e-08 -4.7832393015518949e-07
        -4.1500044837854938e-07 1.3739929010634024e-07
        -5.7594981136087153e-01 8.1748505478268085e-01
        7.0881113260932891e-08 -7.9506104126158666e-08
        -1.5711440939333374e-07 -2.6506447161864257e-07
        1.0770404812717057e-07 2.8311015348594028e-07
        -3.6236057477958645e-07 -6.8569299983668159e-08</data></_></cov_rotate_mats>
  <c type_id="opencv-matrix">
    <rows>1</rows>
    <cols>2</cols>
    <dt>d</dt>
    <data>
      2.5259453234149117e+02 2.5165178387391643e+02</data></c></randomForest>
</opencv_storage>
